svm_type c_svc
kernel_type rbf
gamma 0.0169492
nr_class 2
total_sv 1587
rho -2.62239
label 1 -1
nr_sv 790 797
SV
1 1:-0.49361404 2:0.5042807 3:-0.18301754 4:0.49740351 5:0.49557895 6:-0.51326316 7:0.50329825 8:-0.50526316 9:-0.18470175 10:0.49136842 11:-0.52982456 12:-0.52645614 13:-0.52589474 14:0.48701754 15:0.464 16:0.46217544 17:-0.54526316 18:0.45235088 19:0.44392982 20:0.45838596 21:0.45235088 22:-0.54007018 23:0.45052632 24:0.44449123 25:0.45192982 26:0.43789474 27:-0.4885614 28:-0.18778947 29:-0.32561404 30:0.57726316 31:-0.42807018 32:0.3682807 33:0.56435088 34:-0.42175439 35:-0.48449123 36:-0.54708772 37:0.53740351 38:-0.17445614 39:-0.51045614 40:0.49796491 41:-0.16392982 42:0.49207018 43:0.50161404 44:0.48884211 45:0.49824561 46:-0.48673684 47:0.49768421 48:0.51410526 49:-0.48533333 50:-0.1605614 51:-0.50357895 52:0.52238596 53:-0.49894737 54:-0.50147368 55:-0.47845614 56:0.49810526 57:0.50189474 58:0.4954386 59:0.15494737 
0.8880076095186828 1:-0.49361404 2:-0.16238596 3:-0.18301754 4:-0.50259649 5:-0.17108772 6:0.15340351 7:-0.49670175 8:-0.50526316 9:-0.51803509 10:0.49136842 11:-0.19649123 12:-0.52645614 13:-0.52589474 14:-0.51298246 15:0.13066667 16:-0.53782456 17:-0.21192982 18:0.11901754 19:0.11059649 20:-0.54161404 21:-0.54764912 22:0.12659649 23:0.45052632 24:0.11115789 25:0.11859649 26:-0.56210526 27:0.17810526 28:0.47887719 29:0.0077192982 30:0.24392982 31:0.23859649 32:0.3682807 33:0.23101754 34:0.24491228 35:0.18217544 36:0.11957895 37:0.20407018 38:-0.50778947 39:0.48954386 40:-0.16870175 41:0.16940351 42:0.15873684 43:-0.49838596 44:-0.17782456 45:-0.50175439 46:-0.48673684 47:-0.16898246 48:-0.1525614 49:0.51466667 50:-0.1605614 51:0.16308772 52:0.18905263 53:0.50105263 54:-0.16814035 55:0.52154386 56:0.16477193 57:-0.16477193 58:-0.5045614 59:-0.17838596 
1 1:-0.1602807 2:0.17094737 3:-0.18301754 4:-0.16926316 5:-0.17108772 6:-0.51326316 7:-0.16336842 8:-0.17192982 9:0.14863158 10:0.15803509 11:0.47017544 12:0.14021053 13:0.47410526 14:0.15368421 15:0.464 16:-0.53782456 17:-0.21192982 18:-0.21431579 19:-0.55607018 20:-0.54161404 21:-0.54764912 22:0.45992982 23:0.11719298 24:0.44449123 25:-0.21473684 26:0.43789474 27:-0.15522807 28:-0.18778947 29:-0.32561404 30:0.24392982 31:0.57192982 32:0.034947368 33:-0.43564912 34:0.24491228 35:-0.48449123 36:0.11957895 37:-0.12926316 38:0.49221053 39:0.48954386 40:0.49796491 41:-0.49726316 42:0.15873684 43:0.50161404 44:-0.51115789 45:-0.50175439 46:0.51326316 47:-0.16898246 48:0.51410526 49:0.51466667 50:-0.1605614 51:0.16308772 52:0.52238596 53:-0.16561404 54:0.16519298 55:-0.47845614 56:-0.1685614 57:0.1685614 58:0.16210526 59:0.15494737 
1 1:0.17305263 2:0.5042807 3:-0.18301754 4:-0.16926316 5:0.16224561 6:0.15340351 7:0.50329825 8:-0.17192982 9:-0.51803509 10:-0.17529825 11:-0.19649123 12:-0.52645614 13:0.14077193 14:0.15368421 15:0.13066667 16:-0.20449123 17:-0.21192982 18:0.11901754 19:-0.22273684 20:0.12505263 21:0.45235088 22:-0.20673684 23:-0.54947368 24:-0.22217544 25:0.45192982 26:-0.22877193 27:-0.15522807 28:0.14554386 29:0.0077192982 30:-0.089403509 31:-0.094736842 32:-0.29838596 33:0.23101754 34:0.24491228 35:0.18217544 36:0.11957895 37:0.53740351 38:-0.17445614 39:0.15621053 40:0.49796491 41:0.16940351 42:0.15873684 43:-0.16505263 44:-0.51115789 45:-0.16842105 46:-0.15340351 47:-0.16898246 48:-0.1525614 49:0.18133333 50:0.50610526 51:0.16308772 52:-0.47761404 53:0.50105263 54:-0.16814035 55:0.52154386 56:0.49810526 57:0.1685614 58:-0.5045614 59:-0.17838596 
1 1:0.50638596 2:-0.16238596 3:0.48364912 4:0.16407018 5:0.49557895 6:0.48673684 7:-0.16336842 8:-0.17192982 9:-0.18470175 10:-0.17529825 11:0.13684211 12:-0.52645614 13:0.47410526 14:-0.17964912 15:0.464 16:-0.20449123 17:0.12140351 18:-0.54764912 19:-0.22273684 20:-0.54161404 21:-0.21431579 22:-0.20673684 23:-0.21614035 24:-0.22217544 25:0.45192982 26:-0.22877193 27:-0.15522807 28:-0.18778947 29:-0.32561404 30:0.24392982 31:-0.094736842 32:0.034947368 33:0.23101754 34:-0.42175439 35:0.51550877 36:0.11957895 37:-0.46259649 38:-0.17445614 39:0.15621053 40:0.16463158 41:0.50273684 42:0.49207018 43:0.50161404 44:-0.17782456 45:-0.50175439 46:0.17992982 47:-0.50231579 48:-0.1525614 49:-0.48533333 50:-0.49389474 51:0.49642105 52:0.52238596 53:0.1677193 54:0.49852632 55:-0.14512281 56:-0.1685614 57:-0.16477193 58:0.16210526 59:-0.5117193 
1 1:0.50638596 2:-0.4957193 3:-0.18301754 4:-0.16926316 5:-0.50442105 6:0.48673684 7:0.50329825 8:0.49473684 9:-0.18470175 10:-0.17529825 11:-0.19649123 12:-0.19312281 13:-0.52589474 14:0.48701754 15:0.464 16:-0.20449123 17:-0.54526316 18:-0.54764912 19:-0.22273684 20:0.12505263 21:0.11901754 22:0.12659649 23:-0.21614035 24:-0.22217544 25:0.11859649 26:0.43789474 27:-0.15522807 28:-0.52112281 29:0.67438596 30:-0.089403509 31:-0.094736842 32:0.3682807 33:-0.43564912 34:-0.088421053 35:-0.15115789 36:0.11957895 37:-0.46259649 38:-0.17445614 39:-0.51045614 40:-0.50203509 41:0.16940351 42:0.49207018 43:0.50161404 44:-0.17782456 45:-0.16842105 46:-0.48673684 47:-0.16898246 48:-0.48589474 49:0.18133333 50:-0.49389474 51:-0.50357895 52:0.52238596 53:-0.16561404 54:0.49852632 55:-0.14512281 56:-0.50189474 57:-0.16477193 58:-0.5045614 59:-0.5117193 
1 1:-0.1602807 2:-0.4957193 3:-0.18301754 4:0.16407018 5:0.16224561 6:0.15340351 7:0.50329825 8:-0.17192982 9:-0.18470175 10:0.15803509 11:0.13684211 12:0.14021053 13:0.47410526 14:-0.17964912 15:-0.536 16:0.12884211 17:0.12140351 18:-0.21431579 19:-0.55607018 20:-0.2082807 21:-0.54764912 22:0.12659649 23:0.11719298 24:0.44449123 25:-0.21473684 26:-0.22877193 27:-0.15522807 28:0.14554386 29:0.34105263 30:0.57726316 31:-0.094736842 32:0.3682807 33:-0.10231579 34:-0.42175439 35:-0.15115789 36:0.45291228 37:-0.12926316 38:0.15887719 39:-0.17712281 40:-0.16870175 41:-0.16392982 42:-0.17459649 43:0.50161404 44:0.48884211 45:-0.16842105 46:-0.15340351 47:-0.16898246 48:-0.48589474 49:-0.152 50:-0.1605614 51:-0.17024561 52:-0.47761404 53:-0.49894737 54:-0.50147368 55:0.18821053 56:-0.1685614 57:-0.16477193 58:0.16210526 59:0.15494737 
1 1:-0.49361404 2:0.17094737 3:-0.51635088 4:-0.16926316 5:0.16224561 6:0.48673684 7:-0.49670175 8:-0.50526316 9:-0.51803509 10:-0.50863158 11:0.47017544 12:0.14021053 13:0.14077193 14:0.48701754 15:0.464 16:-0.20449123 17:0.12140351 18:0.11901754 19:0.44392982 20:-0.2082807 21:0.45235088 22:-0.20673684 23:-0.54947368 24:-0.55550877 25:0.45192982 26:-0.22877193 27:-0.4885614 28:-0.52112281 29:-0.32561404 30:-0.42273684 31:-0.094736842 32:-0.6317193 33:-0.43564912 34:-0.088421053 35:-0.15115789 36:-0.54708772 37:-0.46259649 38:-0.50778947 39:0.48954386 40:0.49796491 41:0.50273684 42:-0.50792982 43:0.50161404 44:0.48884211 45:-0.16842105 46:-0.48673684 47:0.16435088 48:-0.48589474 49:-0.152 50:-0.49389474 51:-0.50357895 52:0.18905263 53:-0.49894737 54:-0.16814035 55:0.18821053 56:-0.50189474 57:-0.49810526 58:-0.5045614 59:0.4882807 
1 1:0.17305263 2:0.17094737 3:0.48364912 4:-0.16926316 5:-0.50442105 6:0.15340351 7:-0.49670175 8:-0.17192982 9:0.14863158 10:-0.50863158 11:0.47017544 12:0.14021053 13:-0.52589474 14:0.15368421 15:-0.536 16:0.46217544 17:-0.21192982 18:-0.21431579 19:-0.55607018 20:-0.54161404 21:-0.21431579 22:0.12659649 23:0.11719298 24:-0.55550877 25:0.45192982 26:-0.56210526 27:0.5114386 28:-0.18778947 29:-0.32561404 30:0.57726316 31:-0.094736842 32:0.034947368 33:-0.43564912 34:-0.088421053 35:0.18217544 36:0.11957895 37:-0.12926316 38:-0.50778947 39:0.15621053 40:0.16463158 41:0.50273684 42:-0.17459649 43:-0.16505263 44:-0.51115789 45:0.16491228 46:0.17992982 47:0.16435088 48:0.18077193 49:-0.48533333 50:0.17277193 51:0.16308772 52:-0.1442807 53:-0.49894737 54:-0.16814035 55:-0.47845614 56:-0.50189474 57:0.1685614 58:0.16210526 59:0.15494737 
1 1:0.50638596 2:0.5042807 3:-0.18301754 4:0.49740351 5:-0.50442105 6:-0.51326316 7:0.50329825 8:0.16140351 9:0.48196491 10:-0.17529825 11:-0.52982456 12:-0.19312281 13:-0.52589474 14:-0.51298246 15:-0.20266667 16:-0.53782456 17:-0.21192982 18:-0.21431579 19:-0.55607018 20:-0.2082807 21:-0.54764912 22:-0.54007018 23:-0.21614035 24:0.44449123 25:-0.54807018 26:0.43789474 27:-0.4885614 28:-0.18778947 29:0.0077192982 30:-0.089403509 31:-0.42807018 32:0.034947368 33:0.23101754 34:0.57824561 35:0.51550877 36:0.45291228 37:0.20407018 38:0.15887719 39:0.48954386 40:-0.16870175 41:-0.49726316 42:0.15873684 43:-0.49838596 44:0.48884211 45:-0.16842105 46:-0.48673684 47:-0.16898246 48:-0.1525614 49:-0.152 50:-0.1605614 51:-0.50357895 52:-0.1442807 53:0.50105263 54:0.16519298 55:0.18821053 56:-0.50189474 57:-0.49810526 58:0.4954386 59:0.15494737 
1 1:0.50638596 2:-0.16238596 3:-0.51635088 4:0.49740351 5:-0.17108772 6:-0.51326316 7:-0.16336842 8:0.16140351 9:0.48196491 10:0.15803509 11:0.47017544 12:-0.19312281 13:0.14077193 14:-0.51298246 15:0.464 16:0.12884211 17:0.12140351 18:0.11901754 19:-0.55607018 20:0.45838596 21:0.45235088 22:0.45992982 23:-0.21614035 24:0.44449123 25:-0.21473684 26:-0.22877193 27:0.5114386 28:0.14554386 29:-0.32561404 30:0.57726316 31:0.57192982 32:0.034947368 33:0.23101754 34:0.57824561 35:-0.15115789 36:0.11957895 37:0.53740351 38:-0.50778947 39:0.15621053 40:-0.50203509 41:-0.16392982 42:0.49207018 43:0.1682807 44:0.48884211 45:0.16491228 46:0.17992982 47:-0.50231579 48:-0.48589474 49:0.18133333 50:-0.49389474 51:-0.50357895 52:0.52238596 53:-0.16561404 54:0.49852632 55:0.18821053 56:0.16477193 57:0.1685614 58:0.4954386 59:-0.17838596 
1 1:-0.49361404 2:-0.4957193 3:0.15031579 4:0.49740351 5:-0.50442105 6:-0.17992982 7:-0.49670175 8:0.49473684 9:0.48196491 10:-0.17529825 11:-0.19649123 12:0.14021053 13:0.14077193 14:-0.51298246 15:0.464 16:-0.53782456 17:0.45473684 18:-0.21431579 19:0.44392982 20:0.45838596 21:0.45235088 22:-0.54007018 23:0.45052632 24:-0.55550877 25:-0.54807018 26:0.43789474 27:0.5114386 28:0.47887719 29:0.67438596 30:0.57726316 31:0.57192982 32:0.3682807 33:-0.43564912 34:-0.088421053 35:-0.48449123 36:0.45291228 37:0.53740351 38:-0.17445614 39:-0.17712281 40:-0.16870175 41:0.50273684 42:-0.50792982 43:-0.49838596 44:0.48884211 45:-0.16842105 46:-0.48673684 47:-0.50231579 48:0.51410526 49:-0.48533333 50:0.17277193 51:-0.50357895 52:0.52238596 53:-0.16561404 54:-0.16814035 55:-0.47845614 56:-0.1685614 57:0.50189474 58:0.4954386 59:0.4882807 
1 1:-0.1602807 2:-0.16238596 3:-0.18301754 4:0.16407018 5:-0.50442105 6:-0.17992982 7:-0.49670175 8:0.49473684 9:0.14863158 10:0.49136842 11:0.47017544 12:0.14021053 13:-0.52589474 14:-0.51298246 15:0.464 16:0.12884211 17:-0.54526316 18:-0.21431579 19:0.44392982 20:0.12505263 21:0.11901754 22:0.45992982 23:-0.54947368 24:0.11115789 25:-0.54807018 26:-0.22877193 27:0.17810526 28:-0.52112281 29:-0.32561404 30:-0.089403509 31:0.57192982 32:0.3682807 33:0.56435088 34:-0.088421053 35:-0.48449123 36:0.11957895 37:-0.46259649 38:0.15887719 39:-0.51045614 40:-0.50203509 41:-0.49726316 42:-0.50792982 43:0.50161404 44:0.15550877 45:-0.16842105 46:0.17992982 47:-0.50231579 48:0.18077193 49:-0.48533333 50:-0.49389474 51:0.16308772 52:-0.1442807 53:-0.49894737 54:0.49852632 55:-0.14512281 56:-0.50189474 57:0.1685614 58:-0.17122807 59:0.15494737 
1 1:-0.49361404 2:-0.4957193 3:-0.51635088 4:-0.16926316 5:-0.17108772 6:0.48673684 7:-0.49670175 8:-0.50526316 9:0.48196491 10:-0.17529825 11:-0.52982456 12:-0.19312281 13:0.14077193 14:0.15368421 15:0.464 16:-0.20449123 17:0.45473684 18:-0.21431579 19:-0.55607018 20:-0.2082807 21:-0.21431579 22:-0.54007018 23:-0.21614035 24:0.44449123 25:-0.21473684 26:0.1045614 27:0.17810526 28:0.14554386 29:0.67438596 30:-0.089403509 31:0.23859649 32:0.034947368 33:-0.43564912 34:0.24491228 35:0.18217544 36:0.45291228 37:-0.12926316 38:0.49221053 39:0.15621053 40:0.16463158 41:0.16940351 42:-0.50792982 43:-0.16505263 44:-0.51115789 45:0.16491228 46:0.17992982 47:0.49768421 48:0.51410526 49:0.18133333 50:0.17277193 51:0.16308772 52:0.18905263 53:-0.49894737 54:0.16519298 55:0.52154386 56:0.16477193 57:0.1685614 58:0.16210526 59:-0.5117193 
1 1:-0.49361404 2:-0.16238596 3:0.15031579 4:-0.16926316 5:-0.50442105 6:-0.51326316 7:-0.49670175 8:-0.17192982 9:0.48196491 10:-0.17529825 11:-0.52982456 12:-0.52645614 13:-0.52589474 14:0.15368421 15:0.464 16:0.12884211 17:0.12140351 18:0.45235088 19:0.44392982 20:-0.54161404 21:0.11901754 22:0.45992982 23:-0.21614035 24:-0.55550877 25:-0.21473684 26:0.43789474 27:0.17810526 28:0.47887719 29:0.0077192982 30:0.57726316 31:-0.42807018 32:-0.6317193 33:-0.43564912 34:0.57824561 35:-0.48449123 36:-0.21375439 37:0.53740351 38:-0.17445614 39:0.48954386 40:0.16463158 41:-0.49726316 42:0.49207018 43:-0.49838596 44:-0.17782456 45:0.16491228 46:0.51326316 47:0.16435088 48:-0.48589474 49:-0.48533333 50:-0.1605614 51:0.16308772 52:0.52238596 53:0.1677193 54:0.16519298 55:-0.47845614 56:0.16477193 57:0.1685614 58:0.4954386 59:-0.17838596 
0.7247367234208562 1:-0.1602807 2:0.17094737 3:0.15031579 4:0.16407018 5:0.49557895 6:-0.17992982 7:0.16996491 8:0.16140351 9:-0.51803509 10:0.15803509 11:0.13684211 12:0.14021053 13:0.14077193 14:-0.51298246 15:-0.536 16:-0.20449123 17:-0.21192982 18:0.45235088 19:-0.22273684 20:0.12505263 21:0.11901754 22:0.45992982 23:-0.21614035 24:-0.55550877 25:-0.21473684 26:0.1045614 27:0.17810526 28:0.14554386 29:0.67438596 30:-0.089403509 31:0.23859649 32:0.034947368 33:-0.43564912 34:0.24491228 35:0.18217544 36:0.11957895 37:0.20407018 38:-0.50778947 39:-0.51045614 40:-0.50203509 41:-0.16392982 42:0.49207018 43:-0.16505263 44:0.15550877 45:0.16491228 46:0.51326316 47:-0.16898246 48:-0.48589474 49:-0.152 50:0.17277193 51:0.16308772 52:0.18905263 53:0.50105263 54:-0.16814035 55:0.18821053 56:0.16477193 57:-0.49810526 58:-0.17122807 59:0.15494737 
1 1:-0.49361404 2:-0.4957193 3:0.48364912 4:-0.16926316 5:0.16224561 6:0.15340351 7:0.50329825 8:-0.17192982 9:0.14863158 10:-0.17529825 11:-0.19649123 12:-0.52645614 13:-0.1925614 14:0.48701754 15:0.464 16:-0.20449123 17:0.45473684 18:-0.21431579 19:0.11059649 20:-0.54161404 21:0.11901754 22:-0.20673684 23:0.45052632 24:-0.55550877 25:-0.21473684 26:0.43789474 27:-0.4885614 28:-0.18778947 29:0.0077192982 30:-0.089403509 31:0.57192982 32:0.034947368 33:-0.43564912 34:-0.088421053 35:-0.15115789 36:0.11957895 37:0.20407018 38:-0.50778947 39:0.15621053 40:-0.16870175 41:-0.16392982 42:0.15873684 43:-0.49838596 44:-0.17782456 45:0.16491228 46:0.17992982 47:0.49768421 48:-0.48589474 49:0.18133333 50:0.17277193 51:-0.17024561 52:-0.1442807 53:0.1677193 54:-0.50147368 55:-0.47845614 56:0.49810526 57:0.50189474 58:0.4954386 59:0.15494737 
1 1:0.50638596 2:-0.16238596 3:0.15031579 4:-0.50259649 5:-0.17108772 6:0.15340351 7:-0.16336842 8:-0.50526316 9:0.14863158 10:0.15803509 11:0.47017544 12:0.14021053 13:0.14077193 14:0.48701754 15:-0.20266667 16:0.46217544 17:0.45473684 18:0.45235088 19:0.44392982 20:0.12505263 21:0.45235088 22:0.12659649 23:0.11719298 24:0.44449123 25:0.45192982 26:-0.22877193 27:-0.15522807 28:0.14554386 29:-0.32561404 30:-0.089403509 31:-0.42807018 32:-0.6317193 33:-0.10231579 34:-0.088421053 35:-0.48449123 36:-0.54708772 37:-0.12926316 38:0.15887719 39:0.15621053 40:-0.50203509 41:0.50273684 42:0.15873684 43:0.50161404 44:0.15550877 45:0.16491228 46:0.17992982 47:0.16435088 48:0.51410526 49:0.18133333 50:0.17277193 51:-0.50357895 52:-0.1442807 53:-0.49894737 54:0.49852632 55:-0.14512281 56:0.16477193 57:-0.16477193 58:-0.17122807 59:0.15494737 
1 1:0.17305263 2:0.5042807 3:0.15031579 4:0.16407018 5:0.16224561 6:0.15340351 7:0.50329825 8:-0.50526316 9:-0.51803509 10:-0.50863158 11:0.13684211 12:0.14021053 13:-0.52589474 14:-0.17964912 15:-0.20266667 16:0.12884211 17:0.12140351 18:0.11901754 19:0.44392982 20:0.45838596 21:-0.21431579 22:-0.20673684 23:-0.54947368 24:-0.22217544 25:-0.54807018 26:-0.22877193 27:0.17810526 28:-0.52112281 29:0.0077192982 30:-0.089403509 31:0.23859649 32:0.034947368 33:0.23101754 34:0.24491228 35:-0.48449123 36:-0.21375439 37:-0.12926316 38:-0.17445614 39:-0.17712281 40:-0.50203509 41:-0.16392982 42:0.15873684 43:-0.49838596 44:-0.17782456 45:0.49824561 46:-0.15340351 47:0.16435088 48:-0.48589474 49:-0.48533333 50:0.17277193 51:0.49642105 52:0.18905263 53:-0.49894737 54:0.16519298 55:0.18821053 56:0.49810526 57:0.50189474 58:0.16210526 59:-0.5117193 
1 1:0.50638596 2:-0.4957193 3:-0.51635088 4:0.49740351 5:-0.17108772 6:0.15340351 7:0.16996491 8:-0.50526316 9:0.14863158 10:0.15803509 11:0.47017544 12:0.47354386 13:0.47410526 14:-0.17964912 15:0.13066667 16:-0.53782456 17:0.12140351 18:0.45235088 19:-0.55607018 20:0.12505263 21:0.11901754 22:0.45992982 23:0.11719298 24:0.11115789 25:0.11859649 26:0.43789474 27:0.17810526 28:0.47887719 29:-0.32561404 30:-0.089403509 31:-0.094736842 32:-0.6317193 33:-0.10231579 34:-0.42175439 35:-0.48449123 36:-0.21375439 37:-0.46259649 38:0.15887719 39:0.48954386 40:0.16463158 41:0.50273684 42:0.49207018 43:0.1682807 44:0.15550877 45:-0.50175439 46:0.17992982 47:0.16435088 48:0.51410526 49:0.18133333 50:0.50610526 51:0.49642105 52:0.52238596 53:0.50105263 54:0.49852632 55:-0.14512281 56:0.16477193 57:0.1685614 58:0.4954386 59:-0.17838596 
1 1:-0.1602807 2:-0.4957193 3:0.48364912 4:0.16407018 5:-0.50442105 6:0.15340351 7:-0.49670175 8:0.16140351 9:0.48196491 10:-0.50863158 11:0.47017544 12:0.14021053 13:0.47410526 14:0.15368421 15:0.13066667 16:-0.53782456 17:0.12140351 18:0.45235088 19:0.44392982 20:-0.2082807 21:0.11901754 22:0.12659649 23:0.11719298 24:-0.55550877 25:-0.21473684 26:0.1045614 27:0.17810526 28:0.14554386 29:0.67438596 30:-0.089403509 31:0.57192982 32:-0.29838596 33:-0.10231579 34:-0.42175439 35:-0.48449123 36:-0.21375439 37:-0.46259649 38:0.49221053 39:0.48954386 40:-0.50203509 41:-0.16392982 42:0.15873684 43:-0.16505263 44:-0.17782456 45:0.16491228 46:0.17992982 47:-0.50231579 48:0.51410526 49:-0.152 50:0.50610526 51:-0.50357895 52:0.52238596 53:0.50105263 54:0.16519298 55:0.18821053 56:-0.50189474 57:-0.49810526 58:0.4954386 59:-0.17838596 
1 1:0.17305263 2:0.17094737 3:0.48364912 4:-0.16926316 5:-0.17108772 6:-0.51326316 7:0.16996491 8:0.49473684 9:0.48196491 10:0.49136842 11:0.13684211 12:0.47354386 13:0.47410526 14:-0.17964912 15:0.13066667 16:0.12884211 17:0.45473684 18:0.11901754 19:0.44392982 20:0.45838596 21:0.11901754 22:0.12659649 23:0.11719298 24:0.11115789 25:0.11859649 26:-0.56210526 27:0.17810526 28:0.14554386 29:-0.32561404 30:-0.089403509 31:0.23859649 32:0.3682807 33:-0.10231579 34:-0.088421053 35:-0.48449123 36:-0.21375439 37:-0.46259649 38:-0.17445614 39:-0.51045614 40:-0.50203509 41:-0.49726316 42:-0.17459649 43:-0.16505263 44:0.15550877 45:0.16491228 46:-0.48673684 47:-0.50231579 48:-0.1525614 49:0.18133333 50:-0.1605614 51:-0.17024561 52:-0.47761404 53:0.1677193 54:0.16519298 55:-0.47845614 56:-0.1685614 57:-0.49810526 58:-0.17122807 59:0.15494737 
1 1:0.17305263 2:0.17094737 3:0.15031579 4:0.49740351 5:0.16224561 6:0.15340351 7:0.50329825 8:-0.50526316 9:0.14863158 10:0.15803509 11:-0.19649123 12:-0.19312281 13:-0.52589474 14:-0.51298246 15:0.13066667 16:0.46217544 17:-0.21192982 18:-0.54764912 19:-0.55607018 20:0.12505263 21:0.11901754 22:0.12659649 23:0.45052632 24:0.11115789 25:0.11859649 26:-0.56210526 27:-0.4885614 28:0.14554386 29:-0.32561404 30:-0.089403509 31:-0.094736842 32:-0.29838596 33:-0.43564912 34:-0.088421053 35:0.18217544 36:0.11957895 37:0.20407018 38:0.15887719 39:-0.17712281 40:-0.50203509 41:-0.16392982 42:0.49207018 43:-0.49838596 44:0.48884211 45:0.16491228 46:-0.15340351 47:-0.16898246 48:0.18077193 49:-0.48533333 50:-0.1605614 51:0.16308772 52:-0.47761404 53:-0.16561404 54:0.49852632 55:0.18821053 56:-0.50189474 57:-0.16477193 58:0.16210526 59:-0.5117193 
1 1:-0.1602807 2:0.17094737 3:-0.51635088 4:-0.50259649 5:-0.50442105 6:0.15340351 7:0.16996491 8:0.49473684 9:0.14863158 10:0.49136842 11:0.13684211 12:0.14021053 13:0.14077193 14:0.48701754 15:-0.20266667 16:-0.20449123 17:0.12140351 18:0.11901754 19:0.11059649 20:0.12505263 21:0.45235088 22:0.45992982 23:-0.21614035 24:-0.22217544 25:-0.54807018 26:-0.22877193 27:0.5114386 28:0.14554386 29:-0.32561404 30:-0.089403509 31:-0.094736842 32:0.034947368 33:-0.43564912 34:0.24491228 35:-0.48449123 36:-0.21375439 37:-0.12926316 38:-0.17445614 39:0.15621053 40:-0.16870175 41:-0.16392982 42:-0.17459649 43:-0.16505263 44:0.48884211 45:-0.16842105 46:0.51326316 47:0.49768421 48:-0.1525614 49:-0.152 50:0.50610526 51:-0.17024561 52:-0.1442807 53:-0.16561404 54:-0.16814035 55:-0.47845614 56:-0.50189474 57:-0.49810526 58:0.4954386 59:-0.17838596 
1 1:0.50638596 2:-0.16238596 3:0.15031579 4:-0.50259649 5:0.49557895 6:0.15340351 7:0.16996491 8:-0.50526316 9:-0.51803509 10:0.49136842 11:0.47017544 12:0.47354386 13:-0.52589474 14:-0.51298246 15:0.13066667 16:0.46217544 17:0.45473684 18:-0.54764912 19:-0.55607018 20:0.12505263 21:0.45235088 22:0.12659649 23:0.45052632 24:0.44449123 25:-0.54807018 26:0.1045614 27:0.17810526 28:0.47887719 29:-0.32561404 30:0.57726316 31:0.57192982 32:0.3682807 33:0.56435088 34:0.24491228 35:0.51550877 36:-0.21375439 37:0.20407018 38:-0.50778947 39:-0.17712281 40:0.16463158 41:0.50273684 42:-0.17459649 43:0.1682807 44:0.48884211 45:0.16491228 46:0.17992982 47:0.16435088 48:-0.48589474 49:-0.152 50:-0.49389474 51:0.49642105 52:0.52238596 53:-0.49894737 54:0.16519298 55:0.52154386 56:0.16477193 57:0.1685614 58:0.4954386 59:0.4882807 
1 1:-0.1602807 2:-0.16238596 3:0.48364912 4:-0.50259649 5:-0.50442105 6:-0.17992982 7:-0.49670175 8:-0.17192982 9:-0.51803509 10:-0.50863158 11:-0.52982456 12:0.47354386 13:-0.52589474 14:-0.17964912 15:0.464 16:-0.20449123 17:0.45473684 18:0.45235088 19:-0.22273684 20:-0.54161404 21:0.45235088 22:0.45992982 23:0.45052632 24:0.44449123 25:-0.54807018 26:-0.22877193 27:-0.15522807 28:-0.18778947 29:-0.32561404 30:-0.089403509 31:-0.42807018 32:-0.6317193 33:0.56435088 34:-0.42175439 35:-0.48449123 36:0.11957895 37:0.53740351 38:0.15887719 39:-0.51045614 40:-0.16870175 41:0.16940351 42:-0.50792982 43:-0.49838596 44:0.48884211 45:0.49824561 46:-0.15340351 47:-0.16898246 48:-0.48589474 49:0.51466667 50:0.17277193 51:0.49642105 52:-0.1442807 53:-0.16561404 54:0.49852632 55:-0.47845614 56:0.49810526 57:-0.16477193 58:0.4954386 59:-0.17838596 
1 1:-0.1602807 2:0.17094737 3:0.15031579 4:0.16407018 5:-0.50442105 6:0.48673684 7:0.50329825 8:0.16140351 9:0.14863158 10:0.49136842 11:-0.19649123 12:0.14021053 13:0.47410526 14:0.15368421 15:-0.536 16:0.12884211 17:0.12140351 18:0.45235088 19:-0.22273684 20:0.12505263 21:0.45235088 22:-0.20673684 23:-0.21614035 24:-0.22217544 25:-0.21473684 26:-0.56210526 27:-0.4885614 28:0.14554386 29:-0.32561404 30:0.57726316 31:-0.094736842 32:0.3682807 33:-0.10231579 34:-0.088421053 35:-0.15115789 36:0.11957895 37:-0.12926316 38:0.15887719 39:-0.51045614 40:-0.16870175 41:-0.49726316 42:0.15873684 43:0.1682807 44:0.48884211 45:-0.16842105 46:-0.15340351 47:0.49768421 48:0.18077193 49:0.18133333 50:-0.49389474 51:-0.50357895 52:0.18905263 53:-0.49894737 54:0.49852632 55:0.18821053 56:0.49810526 57:-0.49810526 58:0.4954386 59:-0.17838596 
1 1:0.50638596 2:0.17094737 3:-0.51635088 4:-0.16926316 5:-0.17108772 6:0.15340351 7:-0.49670175 8:0.49473684 9:0.14863158 10:0.15803509 11:-0.19649123 12:0.14021053 13:-0.1925614 14:0.48701754 15:0.13066667 16:0.46217544 17:0.12140351 18:0.11901754 19:-0.22273684 20:-0.54161404 21:0.11901754 22:-0.54007018 23:-0.54947368 24:0.11115789 25:0.45192982 26:0.43789474 27:-0.15522807 28:0.14554386 29:0.34105263 30:-0.089403509 31:-0.094736842 32:0.3682807 33:-0.10231579 34:-0.42175439 35:-0.15115789 36:0.45291228 37:-0.12926316 38:-0.17445614 39:-0.17712281 40:0.16463158 41:-0.16392982 42:0.15873684 43:0.1682807 44:0.15550877 45:0.16491228 46:-0.15340351 47:0.16435088 48:-0.1525614 49:-0.152 50:0.50610526 51:-0.17024561 52:-0.1442807 53:-0.16561404 54:-0.16814035 55:-0.47845614 56:-0.1685614 57:-0.16477193 58:-0.17122807 59:0.15494737 
1 1:0.50638596 2:-0.16238596 3:-0.18301754 4:0.16407018 5:0.16224561 6:0.15340351 7:-0.16336842 8:-0.17192982 9:-0.18470175 10:0.15803509 11:0.13684211 12:0.47354386 13:0.14077193 14:-0.17964912 15:-0.20266667 16:0.12884211 17:0.45473684 18:0.11901754 19:0.11059649 20:-0.2082807 21:-0.54764912 22:-0.20673684 23:-0.54947368 24:-0.22217544 25:-0.21473684 26:-0.56210526 27:-0.4885614 28:-0.18778947 29:-0.32561404 30:-0.089403509 31:-0.094736842 32:-0.6317193 33:-0.10231579 34:0.24491228 35:0.18217544 36:0.11957895 37:-0.12926316 38:0.15887719 39:0.15621053 40:0.49796491 41:-0.16392982 42:-0.17459649 43:-0.16505263 44:0.15550877 45:-0.16842105 46:0.17992982 47:0.16435088 48:-0.1525614 49:-0.48533333 50:-0.1605614 51:-0.17024561 52:-0.47761404 53:-0.16561404 54:-0.50147368 55:-0.14512281 56:0.16477193 57:-0.16477193 58:-0.17122807 59:-0.17838596 
1 1:0.50638596 2:0.17094737 3:-0.51635088 4:0.16407018 5:-0.50442105 6:0.48673684 7:0.50329825 8:-0.50526316 9:-0.18470175 10:-0.50863158 11:0.47017544 12:-0.19312281 13:0.14077193 14:-0.51298246 15:-0.536 16:-0.53782456 17:0.45473684 18:-0.21431579 19:0.11059649 20:0.45838596 21:-0.21431579 22:-0.54007018 23:0.11719298 24:-0.55550877 25:0.45192982 26:-0.56210526 27:-0.15522807 28:-0.18778947 29:0.0077192982 30:-0.42273684 31:-0.42807018 32:0.3682807 33:-0.10231579 34:-0.088421053 35:-0.48449123 36:-0.54708772 37:0.20407018 38:0.15887719 39:-0.51045614 40:0.16463158 41:0.16940351 42:0.49207018 43:0.1682807 44:-0.51115789 45:-0.16842105 46:0.17992982 47:-0.50231579 48:-0.48589474 49:-0.48533333 50:0.17277193 51:-0.17024561 52:-0.47761404 53:-0.49894737 54:-0.16814035 55:0.18821053 56:-0.50189474 57:-0.16477193 58:-0.17122807 59:0.4882807 
1 1:-0.1602807 2:-0.16238596 3:0.48364912 4:-0.50259649 5:0.49557895 6:-0.17992982 7:-0.49670175 8:-0.17192982 9:-0.51803509 10:-0.50863158 11:0.47017544 12:0.14021053 13:0.47410526 14:-0.51298246 15:-0.20266667 16:-0.20449123 17:0.12140351 18:-0.54764912 19:-0.22273684 20:-0.2082807 21:-0.21431579 22:-0.20673684 23:0.11719298 24:-0.55550877 25:-0.21473684 26:-0.22877193 27:-0.15522807 28:-0.18778947 29:-0.32561404 30:-0.089403509 31:0.57192982 32:0.3682807 33:-0.43564912 34:0.24491228 35:-0.48449123 36:-0.21375439 37:0.53740351 38:0.15887719 39:0.15621053 40:0.16463158 41:0.50273684 42:0.49207018 43:0.50161404 44:0.48884211 45:-0.50175439 46:0.17992982 47:-0.50231579 48:-0.1525614 49:-0.48533333 50:0.50610526 51:-0.50357895 52:-0.1442807 53:-0.49894737 54:-0.50147368 55:-0.47845614 56:-0.50189474 57:-0.49810526 58:0.16210526 59:-0.5117193 
1 1:0.50638596 2:0.5042807 3:-0.18301754 4:-0.50259649 5:-0.50442105 6:0.15340351 7:0.50329825 8:0.16140351 9:0.48196491 10:0.15803509 11:0.47017544 12:-0.19312281 13:-0.52589474 14:-0.17964912 15:-0.536 16:0.46217544 17:-0.54526316 18:-0.54764912 19:-0.55607018 20:0.12505263 21:-0.21431579 22:-0.20673684 23:-0.54947368 24:-0.22217544 25:-0.54807018 26:0.43789474 27:-0.15522807 28:0.14554386 29:-0.32561404 30:-0.089403509 31:-0.094736842 32:-0.29838596 33:0.56435088 34:0.24491228 35:-0.48449123 36:-0.54708772 37:-0.46259649 38:0.15887719 39:0.48954386 40:-0.50203509 41:0.16940351 42:-0.50792982 43:0.50161404 44:-0.51115789 45:-0.50175439 46:-0.48673684 47:0.49768421 48:-0.1525614 49:0.18133333 50:0.17277193 51:-0.50357895 52:-0.1442807 53:0.1677193 54:0.49852632 55:-0.47845614 56:0.49810526 57:-0.49810526 58:0.4954386 59:0.4882807 
1 1:-0.1602807 2:-0.16238596 3:-0.51635088 4:0.16407018 5:-0.17108772 6:-0.51326316 7:-0.49670175 8:-0.17192982 9:0.48196491 10:0.49136842 11:-0.19649123 12:-0.19312281 13:0.47410526 14:-0.17964912 15:-0.20266667 16:0.46217544 17:-0.21192982 18:-0.54764912 19:-0.22273684 20:-0.2082807 21:0.11901754 22:0.12659649 23:0.11719298 24:0.44449123 25:-0.21473684 26:-0.22877193 27:-0.15522807 28:0.14554386 29:-0.32561404 30:-0.089403509 31:-0.094736842 32:0.3682807 33:0.56435088 34:-0.088421053 35:-0.15115789 36:0.45291228 37:-0.46259649 38:0.49221053 39:0.15621053 40:-0.50203509 41:-0.49726316 42:-0.17459649 43:-0.16505263 44:0.48884211 45:0.49824561 46:-0.48673684 47:0.16435088 48:-0.48589474 49:-0.48533333 50:-0.1605614 51:-0.17024561 52:0.18905263 53:-0.49894737 54:-0.16814035 55:-0.14512281 56:0.49810526 57:0.50189474 58:0.4954386 59:-0.5117193 
1 1:0.50638596 2:0.17094737 3:-0.18301754 4:-0.16926316 5:-0.50442105 6:0.15340351 7:0.50329825 8:0.49473684 9:0.14863158 10:0.49136842 11:-0.19649123 12:0.47354386 13:-0.1925614 14:0.48701754 15:-0.20266667 16:-0.20449123 17:-0.54526316 18:-0.21431579 19:-0.22273684 20:0.12505263 21:0.45235088 22:-0.20673684 23:0.11719298 24:-0.55550877 25:-0.54807018 26:-0.56210526 27:-0.4885614 28:0.47887719 29:0.0077192982 30:0.57726316 31:-0.094736842 32:0.3682807 33:-0.10231579 34:-0.088421053 35:-0.48449123 36:-0.21375439 37:0.20407018 38:-0.50778947 39:-0.17712281 40:-0.16870175 41:-0.49726316 42:-0.17459649 43:-0.16505263 44:-0.51115789 45:-0.16842105 46:-0.48673684 47:0.16435088 48:0.51410526 49:0.51466667 50:0.50610526 51:0.49642105 52:0.18905263 53:0.50105263 54:0.16519298 55:0.18821053 56:0.16477193 57:-0.49810526 58:-0.5045614 59:0.4882807 
1 1:0.50638596 2:-0.4957193 3:0.15031579 4:0.16407018 5:0.49557895 6:-0.51326316 7:-0.49670175 8:-0.50526316 9:0.14863158 10:-0.50863158 11:-0.52982456 12:0.14021053 13:-0.52589474 14:0.48701754 15:-0.20266667 16:0.46217544 17:-0.21192982 18:0.11901754 19:0.44392982 20:0.12505263 21:0.11901754 22:-0.54007018 23:0.11719298 24:-0.55550877 25:0.45192982 26:0.43789474 27:0.5114386 28:0.14554386 29:-0.32561404 30:-0.089403509 31:-0.42807018 32:-0.6317193 33:0.23101754 34:0.24491228 35:0.51550877 36:-0.54708772 37:0.53740351 38:0.15887719 39:0.48954386 40:0.49796491 41:0.16940351 42:0.49207018 43:0.50161404 44:0.15550877 45:-0.16842105 46:-0.48673684 47:0.16435088 48:-0.48589474 49:0.18133333 50:-0.49389474 51:0.49642105 52:-0.1442807 53:-0.16561404 54:-0.16814035 55:-0.47845614 56:0.49810526 57:-0.49810526 58:-0.5045614 59:0.15494737 
1 1:-0.1602807 2:-0.16238596 3:-0.51635088 4:0.16407018 5:0.16224561 6:-0.51326316 7:-0.16336842 8:-0.50526316 9:-0.51803509 10:0.49136842 11:0.47017544 12:-0.19312281 13:-0.52589474 14:-0.17964912 15:-0.536 16:-0.20449123 17:-0.54526316 18:-0.21431579 19:-0.22273684 20:-0.54161404 21:-0.54764912 22:0.45992982 23:0.45052632 24:0.44449123 25:0.45192982 26:0.1045614 27:0.5114386 28:-0.52112281 29:-0.32561404 30:-0.42273684 31:0.23859649 32:0.3682807 33:0.23101754 34:0.24491228 35:-0.48449123 36:-0.21375439 37:-0.46259649 38:-0.50778947 39:0.15621053 40:-0.50203509 41:-0.49726316 42:-0.17459649 43:-0.49838596 44:0.15550877 45:0.16491228 46:-0.48673684 47:-0.50231579 48:-0.1525614 49:0.18133333 50:0.50610526 51:-0.17024561 52:-0.47761404 53:0.1677193 54:-0.50147368 55:-0.14512281 56:0.49810526 57:-0.16477193 58:0.16210526 59:0.4882807 
1 1:-0.49361404 2:-0.16238596 3:0.15031579 4:0.16407018 5:0.16224561 6:0.15340351 7:-0.16336842 8:-0.17192982 9:0.14863158 10:0.49136842 11:-0.19649123 12:-0.19312281 13:-0.1925614 14:0.48701754 15:-0.536 16:0.12884211 17:-0.21192982 18:0.11901754 19:-0.55607018 20:0.12505263 21:0.11901754 22:0.12659649 23:-0.21614035 24:0.11115789 25:0.45192982 26:-0.22877193 27:-0.15522807 28:-0.18778947 29:0.34105263 30:-0.42273684 31:0.23859649 32:0.3682807 33:-0.10231579 34:0.24491228 35:0.51550877 36:-0.21375439 37:0.20407018 38:0.49221053 39:-0.17712281 40:0.16463158 41:0.50273684 42:0.15873684 43:0.50161404 44:0.48884211 45:0.16491228 46:0.51326316 47:-0.16898246 48:-0.1525614 49:0.18133333 50:0.50610526 51:0.16308772 52:-0.1442807 53:-0.16561404 54:0.16519298 55:0.52154386 56:-0.1685614 57:-0.16477193 58:0.16210526 59:0.4882807 
1 1:-0.49361404 2:-0.4957193 3:0.15031579 4:-0.50259649 5:-0.17108772 6:-0.17992982 7:0.16996491 8:-0.50526316 9:0.48196491 10:0.49136842 11:0.13684211 12:0.14021053 13:-0.52589474 14:0.15368421 15:-0.536 16:-0.20449123 17:-0.21192982 18:0.11901754 19:0.44392982 20:0.45838596 21:0.45235088 22:0.45992982 23:0.45052632 24:0.11115789 25:0.45192982 26:-0.22877193 27:-0.15522807 28:-0.18778947 29:-0.32561404 30:-0.42273684 31:0.23859649 32:0.034947368 33:0.23101754 34:0.57824561 35:0.51550877 36:-0.54708772 37:0.20407018 38:0.49221053 39:0.48954386 40:-0.16870175 41:-0.49726316 42:0.49207018 43:-0.49838596 44:-0.17782456 45:0.49824561 46:-0.15340351 47:0.16435088 48:0.51410526 49:0.18133333 50:0.50610526 51:-0.50357895 52:-0.1442807 53:-0.16561404 54:-0.50147368 55:-0.47845614 56:-0.50189474 57:0.1685614 58:-0.5045614 59:0.15494737 
1 1:-0.49361404 2:-0.16238596 3:0.15031579 4:0.16407018 5:0.49557895 6:-0.17992982 7:-0.16336842 8:0.49473684 9:-0.18470175 10:-0.17529825 11:-0.52982456 12:0.14021053 13:0.14077193 14:0.48701754 15:-0.536 16:-0.20449123 17:0.45473684 18:0.11901754 19:0.11059649 20:0.12505263 21:0.11901754 22:0.45992982 23:-0.21614035 24:-0.22217544 25:0.45192982 26:0.43789474 27:-0.15522807 28:-0.52112281 29:-0.32561404 30:-0.089403509 31:-0.094736842 32:0.3682807 33:-0.10231579 34:-0.42175439 35:-0.15115789 36:-0.54708772 37:0.53740351 38:-0.17445614 39:0.15621053 40:0.49796491 41:-0.16392982 42:0.15873684 43:0.1682807 44:-0.51115789 45:-0.16842105 46:0.17992982 47:0.16435088 48:0.18077193 49:0.51466667 50:-0.1605614 51:0.16308772 52:0.18905263 53:0.50105263 54:0.49852632 55:0.18821053 56:-0.50189474 57:-0.16477193 58:-0.17122807 59:0.4882807 
1 1:0.17305263 2:0.5042807 3:0.48364912 4:-0.50259649 5:0.16224561 6:0.48673684 7:0.16996491 8:0.49473684 9:0.48196491 10:0.49136842 11:0.47017544 12:0.47354386 13:0.47410526 14:0.48701754 15:0.13066667 16:0.12884211 17:0.12140351 18:0.11901754 19:0.11059649 20:0.12505263 21:0.45235088 22:0.45992982 23:0.11719298 24:0.44449123 25:0.45192982 26:-0.56210526 27:-0.4885614 28:-0.52112281 29:0.34105263 30:0.24392982 31:-0.42807018 32:0.034947368 33:0.23101754 34:-0.42175439 35:-0.15115789 36:0.45291228 37:-0.12926316 38:-0.17445614 39:0.48954386 40:0.49796491 41:0.16940351 42:-0.50792982 43:0.50161404 44:0.48884211 45:0.49824561 46:0.51326316 47:0.49768421 48:-0.48589474 49:-0.48533333 50:-0.1605614 51:-0.17024561 52:0.52238596 53:0.50105263 54:0.49852632 55:0.52154386 56:0.49810526 57:0.50189474 58:0.16210526 59:-0.5117193 
1 1:0.50638596 2:0.5042807 3:0.48364912 4:0.49740351 5:0.49557895 6:0.48673684 7:0.16996491 8:0.16140351 9:0.48196491 10:-0.17529825 11:-0.52982456 12:-0.19312281 13:0.14077193 14:0.48701754 15:0.464 16:-0.20449123 17:-0.21192982 18:0.11901754 19:0.11059649 20:-0.54161404 21:-0.21431579 22:-0.54007018 23:-0.54947368 24:-0.22217544 25:-0.21473684 26:-0.22877193 27:-0.15522807 28:-0.18778947 29:0.34105263 30:0.24392982 31:-0.42807018 32:0.3682807 33:-0.10231579 34:-0.42175439 35:-0.15115789 36:-0.21375439 37:0.20407018 38:0.15887719 39:0.48954386 40:0.16463158 41:-0.49726316 42:-0.17459649 43:0.50161404 44:-0.17782456 45:-0.16842105 46:-0.48673684 47:0.16435088 48:0.51410526 49:0.51466667 50:0.50610526 51:0.16308772 52:0.18905263 53:-0.49894737 54:0.16519298 55:0.18821053 56:0.16477193 57:0.1685614 58:0.16210526 59:0.4882807 
1 1:0.50638596 2:0.17094737 3:-0.18301754 4:-0.16926316 5:-0.17108772 6:0.15340351 7:0.50329825 8:0.49473684 9:0.14863158 10:0.15803509 11:-0.19649123 12:-0.19312281 13:-0.52589474 14:-0.17964912 15:0.13066667 16:0.46217544 17:0.45473684 18:0.45235088 19:-0.22273684 20:-0.2082807 21:0.11901754 22:-0.20673684 23:-0.21614035 24:0.11115789 25:-0.54807018 26:-0.22877193 27:0.17810526 28:0.47887719 29:-0.32561404 30:-0.089403509 31:-0.094736842 32:-0.29838596 33:-0.10231579 34:-0.42175439 35:-0.15115789 36:-0.21375439 37:-0.46259649 38:0.49221053 39:-0.17712281 40:-0.16870175 41:0.16940351 42:-0.17459649 43:-0.16505263 44:-0.51115789 45:-0.16842105 46:0.51326316 47:0.16435088 48:0.51410526 49:0.51466667 50:0.17277193 51:-0.17024561 52:-0.1442807 53:-0.49894737 54:0.49852632 55:-0.47845614 56:-0.50189474 57:-0.16477193 58:0.16210526 59:0.4882807 
1 1:-0.49361404 2:-0.16238596 3:-0.18301754 4:-0.16926316 5:0.16224561 6:-0.51326316 7:0.16996491 8:0.49473684 9:-0.18470175 10:0.49136842 11:-0.19649123 12:-0.19312281 13:0.47410526 14:-0.51298246 15:-0.20266667 16:-0.20449123 17:0.12140351 18:-0.54764912 19:0.11059649 20:0.12505263 21:0.45235088 22:-0.54007018 23:0.45052632 24:-0.55550877 25:-0.21473684 26:0.43789474 27:0.17810526 28:0.14554386 29:0.34105263 30:-0.42273684 31:-0.094736842 32:0.034947368 33:0.56435088 34:-0.42175439 35:0.18217544 36:0.45291228 37:0.53740351 38:-0.17445614 39:-0.17712281 40:-0.16870175 41:-0.49726316 42:-0.17459649 43:-0.16505263 44:0.15550877 45:0.49824561 46:-0.15340351 47:-0.50231579 48:-0.1525614 49:-0.152 50:0.17277193 51:-0.50357895 52:-0.47761404 53:-0.16561404 54:-0.50147368 55:-0.14512281 56:-0.50189474 57:-0.49810526 58:0.4954386 59:0.4882807 
1 1:0.50638596 2:-0.4957193 3:0.15031579 4:0.49740351 5:-0.17108772 6:0.48673684 7:-0.49670175 8:0.49473684 9:0.14863158 10:-0.50863158 11:-0.52982456 12:-0.19312281 13:0.47410526 14:0.15368421 15:-0.536 16:0.46217544 17:-0.21192982 18:-0.21431579 19:0.11059649 20:-0.54161404 21:-0.21431579 22:-0.20673684 23:0.45052632 24:-0.55550877 25:0.11859649 26:-0.56210526 27:-0.15522807 28:0.47887719 29:-0.32561404 30:-0.089403509 31:-0.094736842 32:-0.6317193 33:0.56435088 34:-0.42175439 35:-0.48449123 36:-0.21375439 37:0.20407018 38:0.15887719 39:-0.51045614 40:0.16463158 41:0.50273684 42:0.15873684 43:0.50161404 44:-0.17782456 45:0.49824561 46:0.17992982 47:0.16435088 48:0.18077193 49:0.51466667 50:0.50610526 51:0.16308772 52:0.18905263 53:0.50105263 54:-0.16814035 55:-0.14512281 56:-0.1685614 57:0.1685614 58:-0.5045614 59:-0.5117193 
1 1:0.17305263 2:0.17094737 3:-0.51635088 4:-0.16926316 5:0.16224561 6:0.48673684 7:0.16996491 8:0.16140351 9:-0.51803509 10:0.15803509 11:0.47017544 12:0.14021053 13:0.14077193 14:-0.17964912 15:0.13066667 16:0.46217544 17:-0.21192982 18:0.45235088 19:0.11059649 20:-0.2082807 21:0.11901754 22:0.12659649 23:0.11719298 24:-0.55550877 25:0.11859649 26:0.1045614 27:0.17810526 28:-0.18778947 29:0.34105263 30:-0.42273684 31:0.57192982 32:0.034947368 33:-0.43564912 34:0.24491228 35:0.18217544 36:0.11957895 37:-0.12926316 38:-0.17445614 39:0.15621053 40:0.49796491 41:-0.16392982 42:0.15873684 43:-0.49838596 44:-0.17782456 45:-0.16842105 46:-0.48673684 47:-0.16898246 48:-0.48589474 49:-0.48533333 50:-0.1605614 51:-0.17024561 52:-0.47761404 53:-0.16561404 54:-0.16814035 55:-0.47845614 56:0.16477193 57:0.1685614 58:0.4954386 59:-0.17838596 
1 1:-0.49361404 2:0.17094737 3:-0.51635088 4:0.16407018 5:0.16224561 6:-0.51326316 7:-0.49670175 8:0.49473684 9:0.48196491 10:0.49136842 11:-0.52982456 12:0.47354386 13:0.47410526 14:-0.17964912 15:0.464 16:-0.53782456 17:0.45473684 18:-0.54764912 19:0.44392982 20:0.45838596 21:0.45235088 22:0.45992982 23:0.11719298 24:-0.55550877 25:0.45192982 26:-0.56210526 27:0.17810526 28:-0.18778947 29:0.0077192982 30:0.24392982 31:0.57192982 32:-0.6317193 33:-0.10231579 34:-0.42175439 35:-0.48449123 36:-0.21375439 37:-0.46259649 38:-0.17445614 39:0.15621053 40:-0.50203509 41:-0.49726316 42:-0.50792982 43:0.50161404 44:0.48884211 45:0.49824561 46:0.51326316 47:-0.16898246 48:-0.48589474 49:0.51466667 50:0.50610526 51:-0.17024561 52:0.52238596 53:0.50105263 54:0.16519298 55:0.18821053 56:0.16477193 57:-0.49810526 58:-0.17122807 59:0.15494737 
1 1:-0.1602807 2:0.5042807 3:0.15031579 4:-0.16926316 5:0.49557895 6:0.15340351 7:0.16996491 8:0.49473684 9:0.14863158 10:-0.50863158 11:0.13684211 12:-0.19312281 13:-0.1925614 14:0.48701754 15:0.464 16:-0.53782456 17:0.12140351 18:0.45235088 19:0.11059649 20:0.45838596 21:0.45235088 22:0.45992982 23:-0.21614035 24:-0.55550877 25:-0.21473684 26:-0.22877193 27:0.5114386 28:-0.18778947 29:0.0077192982 30:-0.089403509 31:-0.42807018 32:0.3682807 33:0.23101754 34:0.57824561 35:0.51550877 36:0.45291228 37:-0.12926316 38:0.15887719 39:0.15621053 40:0.49796491 41:-0.16392982 42:-0.50792982 43:0.50161404 44:0.15550877 45:0.49824561 46:0.51326316 47:0.49768421 48:-0.1525614 49:0.18133333 50:-0.49389474 51:-0.50357895 52:-0.47761404 53:-0.49894737 54:0.49852632 55:0.18821053 56:-0.50189474 57:-0.16477193 58:-0.17122807 59:-0.5117193 
1 1:0.17305263 2:0.17094737 3:-0.51635088 4:0.49740351 5:0.16224561 6:-0.17992982 7:-0.49670175 8:-0.17192982 9:-0.51803509 10:-0.50863158 11:-0.19649123 12:0.14021053 13:0.47410526 14:0.15368421 15:-0.20266667 16:0.12884211 17:-0.21192982 18:-0.21431579 19:0.44392982 20:-0.2082807 21:-0.21431579 22:-0.54007018 23:-0.54947368 24:-0.22217544 25:0.11859649 26:0.1045614 27:0.17810526 28:0.47887719 29:0.0077192982 30:0.57726316 31:0.23859649 32:0.034947368 33:-0.43564912 34:-0.088421053 35:0.18217544 36:0.11957895 37:0.53740351 38:-0.17445614 39:-0.17712281 40:-0.50203509 41:0.16940351 42:-0.17459649 43:-0.16505263 44:0.15550877 45:-0.16842105 46:-0.48673684 47:0.16435088 48:0.18077193 49:0.51466667 50:-0.1605614 51:-0.17024561 52:0.18905263 53:-0.16561404 54:-0.16814035 55:-0.14512281 56:0.16477193 57:0.1685614 58:-0.17122807 59:-0.5117193 
1 1:0.17305263 2:0.5042807 3:-0.18301754 4:-0.16926316 5:-0.17108772 6:-0.51326316 7:-0.49670175 8:-0.17192982 9:0.48196491 10:-0.17529825 11:-0.52982456 12:-0.19312281 13:0.14077193 14:0.48701754 15:0.13066667 16:-0.20449123 17:0.12140351 18:-0.54764912 19:-0.22273684 20:0.45838596 21:-0.21431579 22:0.45992982 23:-0.21614035 24:0.11115789 25:0.45192982 26:-0.22877193 27:-0.4885614 28:0.14554386 29:-0.32561404 30:0.24392982 31:0.23859649 32:-0.6317193 33:-0.10231579 34:-0.42175439 35:-0.48449123 36:-0.54708772 37:-0.46259649 38:-0.17445614 39:0.48954386 40:-0.16870175 41:0.16940351 42:0.15873684 43:0.50161404 44:0.15550877 45:0.49824561 46:-0.15340351 47:-0.16898246 48:-0.48589474 49:0.18133333 50:0.50610526 51:0.16308772 52:-0.47761404 53:0.50105263 54:0.16519298 55:0.18821053 56:0.16477193 57:0.1685614 58:0.4954386 59:-0.17838596 
1 1:-0.49361404 2:0.5042807 3:-0.18301754 4:-0.50259649 5:-0.17108772 6:-0.51326316 7:-0.16336842 8:-0.50526316 9:0.14863158 10:-0.50863158 11:-0.19649123 12:-0.19312281 13:0.14077193 14:-0.51298246 15:0.464 16:0.46217544 17:0.45473684 18:-0.21431579 19:-0.22273684 20:-0.54161404 21:0.11901754 22:0.12659649 23:-0.54947368 24:-0.55550877 25:-0.54807018 26:0.43789474 27:0.5114386 28:-0.52112281 29:0.67438596 30:-0.089403509 31:-0.42807018 32:0.3682807 33:-0.10231579 34:0.57824561 35:-0.15115789 36:0.45291228 37:0.53740351 38:0.15887719 39:0.15621053 40:-0.50203509 41:0.50273684 42:-0.17459649 43:0.50161404 44:-0.51115789 45:0.49824561 46:-0.15340351 47:-0.16898246 48:0.18077193 49:-0.48533333 50:0.50610526 51:-0.50357895 52:0.52238596 53:-0.16561404 54:0.16519298 55:-0.47845614 56:-0.50189474 57:-0.49810526 58:-0.17122807 59:0.4882807 
1 1:0.17305263 2:0.17094737 3:-0.51635088 4:0.49740351 5:0.16224561 6:0.48673684 7:0.50329825 8:0.49473684 9:0.14863158 10:0.49136842 11:0.47017544 12:-0.19312281 13:-0.1925614 14:-0.17964912 15:0.464 16:0.46217544 17:0.45473684 18:-0.21431579 19:-0.22273684 20:0.45838596 21:0.11901754 22:0.12659649 23:0.45052632 24:-0.22217544 25:0.45192982 26:0.43789474 27:0.17810526 28:0.47887719 29:0.0077192982 30:0.57726316 31:-0.42807018 32:-0.6317193 33:0.56435088 34:0.57824561 35:0.51550877 36:0.45291228 37:-0.12926316 38:0.49221053 39:-0.17712281 40:0.16463158 41:0.50273684 42:-0.17459649 43:0.50161404 44:-0.17782456 45:-0.50175439 46:-0.48673684 47:-0.50231579 48:-0.1525614 49:-0.152 50:-0.1605614 51:0.49642105 52:0.18905263 53:-0.16561404 54:0.49852632 55:-0.14512281 56:-0.1685614 57:0.50189474 58:-0.17122807 59:-0.17838596 
1 1:-0.1602807 2:-0.16238596 3:0.15031579 4:-0.50259649 5:0.16224561 6:0.15340351 7:-0.16336842 8:-0.50526316 9:-0.18470175 10:0.15803509 11:-0.52982456 12:-0.19312281 13:0.47410526 14:0.48701754 15:0.13066667 16:-0.20449123 17:0.12140351 18:-0.21431579 19:0.44392982 20:0.12505263 21:0.11901754 22:-0.54007018 23:0.45052632 24:-0.22217544 25:0.11859649 26:-0.22877193 27:-0.15522807 28:-0.18778947 29:-0.32561404 30:0.24392982 31:0.23859649 32:0.3682807 33:-0.10231579 34:0.57824561 35:-0.48449123 36:0.11957895 37:-0.46259649 38:0.49221053 39:0.15621053 40:-0.50203509 41:-0.49726316 42:-0.17459649 43:-0.49838596 44:-0.51115789 45:0.16491228 46:-0.15340351 47:-0.16898246 48:0.18077193 49:0.18133333 50:-0.49389474 51:-0.17024561 52:-0.1442807 53:-0.16561404 54:0.16519298 55:0.52154386 56:0.49810526 57:0.1685614 58:-0.5045614 59:0.4882807 
1 1:-0.49361404 2:-0.16238596 3:0.15031579 4:0.16407018 5:0.16224561 6:0.15340351 7:-0.49670175 8:0.16140351 9:-0.18470175 10:-0.17529825 11:-0.19649123 12:0.14021053 13:-0.1925614 14:0.15368421 15:0.13066667 16:-0.53782456 17:0.12140351 18:-0.21431579 19:-0.22273684 20:-0.54161404 21:-0.54764912 22:0.12659649 23:0.11719298 24:0.11115789 25:-0.21473684 26:0.1045614 27:0.5114386 28:0.14554386 29:0.0077192982 30:-0.42273684 31:0.57192982 32:0.034947368 33:0.56435088 34:0.24491228 35:-0.15115789 36:0.11957895 37:0.20407018 38:-0.17445614 39:0.15621053 40:0.16463158 41:-0.49726316 42:-0.50792982 43:0.1682807 44:0.48884211 45:-0.16842105 46:-0.15340351 47:0.49768421 48:-0.48589474 49:-0.152 50:-0.49389474 51:0.16308772 52:-0.47761404 53:0.50105263 54:-0.16814035 55:-0.14512281 56:-0.50189474 57:-0.16477193 58:-0.5045614 59:0.15494737 
1 1:-0.1602807 2:0.5042807 3:-0.18301754 4:-0.50259649 5:-0.17108772 6:-0.17992982 7:0.50329825 8:0.49473684 9:0.48196491 10:-0.17529825 11:0.47017544 12:0.47354386 13:0.47410526 14:0.15368421 15:0.464 16:-0.53782456 17:0.12140351 18:0.11901754 19:-0.55607018 20:-0.2082807 21:0.45235088 22:0.45992982 23:-0.54947368 24:0.44449123 25:0.45192982 26:0.1045614 27:0.17810526 28:-0.18778947 29:0.0077192982 30:-0.42273684 31:-0.094736842 32:0.3682807 33:-0.43564912 34:-0.42175439 35:0.18217544 36:0.11957895 37:-0.46259649 38:-0.17445614 39:-0.51045614 40:0.49796491 41:-0.49726316 42:-0.50792982 43:-0.49838596 44:-0.17782456 45:-0.50175439 46:-0.15340351 47:-0.50231579 48:0.51410526 49:-0.152 50:0.17277193 51:0.16308772 52:0.18905263 53:0.50105263 54:0.16519298 55:0.52154386 56:-0.1685614 57:0.50189474 58:0.4954386 59:0.4882807 
1 1:-0.1602807 2:-0.16238596 3:-0.51635088 4:-0.50259649 5:-0.17108772 6:-0.51326316 7:0.50329825 8:-0.17192982 9:0.14863158 10:0.49136842 11:-0.19649123 12:-0.19312281 13:-0.52589474 14:-0.17964912 15:-0.20266667 16:-0.53782456 17:-0.21192982 18:-0.54764912 19:-0.55607018 20:-0.54161404 21:0.11901754 22:0.45992982 23:0.11719298 24:0.44449123 25:-0.21473684 26:-0.22877193 27:-0.15522807 28:-0.52112281 29:-0.32561404 30:-0.089403509 31:-0.094736842 32:0.3682807 33:-0.43564912 34:-0.088421053 35:-0.15115789 36:0.11957895 37:0.53740351 38:0.15887719 39:0.48954386 40:-0.16870175 41:-0.16392982 42:0.49207018 43:-0.16505263 44:-0.51115789 45:0.16491228 46:0.17992982 47:-0.50231579 48:-0.1525614 49:-0.152 50:-0.49389474 51:0.16308772 52:-0.47761404 53:-0.49894737 54:-0.16814035 55:-0.14512281 56:-0.1685614 57:-0.49810526 58:-0.17122807 59:-0.17838596 
1 1:-0.1602807 2:-0.16238596 3:0.48364912 4:-0.50259649 5:-0.50442105 6:0.15340351 7:-0.16336842 8:0.49473684 9:0.14863158 10:0.15803509 11:0.47017544 12:0.14021053 13:0.47410526 14:0.48701754 15:0.13066667 16:0.12884211 17:0.12140351 18:-0.54764912 19:0.11059649 20:0.12505263 21:0.45235088 22:0.12659649 23:0.45052632 24:0.44449123 25:0.11859649 26:0.1045614 27:0.17810526 28:0.14554386 29:-0.32561404 30:-0.089403509 31:0.57192982 32:-0.29838596 33:-0.43564912 34:0.24491228 35:0.18217544 36:0.45291228 37:0.20407018 38:0.15887719 39:0.48954386 40:0.16463158 41:0.16940351 42:-0.50792982 43:-0.16505263 44:0.15550877 45:0.16491228 46:-0.15340351 47:0.16435088 48:0.18077193 49:-0.48533333 50:-0.49389474 51:-0.50357895 52:0.52238596 53:0.1677193 54:0.16519298 55:-0.14512281 56:0.16477193 57:-0.49810526 58:0.16210526 59:0.15494737 
1 1:-0.1602807 2:0.5042807 3:0.15031579 4:0.16407018 5:0.49557895 6:-0.17992982 7:0.50329825 8:-0.17192982 9:0.14863158 10:0.15803509 11:0.47017544 12:-0.19312281 13:0.47410526 14:-0.17964912 15:0.464 16:0.46217544 17:-0.54526316 18:0.11901754 19:0.44392982 20:0.45838596 21:-0.21431579 22:0.12659649 23:0.45052632 24:-0.55550877 25:0.11859649 26:-0.56210526 27:-0.15522807 28:0.47887719 29:0.67438596 30:-0.42273684 31:-0.094736842 32:-0.6317193 33:-0.43564912 34:-0.42175439 35:0.18217544 36:-0.54708772 37:-0.46259649 38:-0.50778947 39:0.15621053 40:0.49796491 41:0.50273684 42:0.15873684 43:-0.49838596 44:0.48884211 45:-0.16842105 46:0.17992982 47:0.16435088 48:0.18077193 49:-0.48533333 50:-0.49389474 51:-0.50357895 52:0.18905263 53:0.1677193 54:-0.50147368 55:-0.47845614 56:-0.1685614 57:-0.16477193 58:-0.5045614 59:-0.5117193 
1 1:-0.1602807 2:-0.16238596 3:-0.51635088 4:-0.50259649 5:-0.17108772 6:-0.17992982 7:-0.49670175 8:-0.17192982 9:-0.18470175 10:-0.17529825 11:-0.19649123 12:0.47354386 13:-0.52589474 14:-0.51298246 15:0.464 16:-0.20449123 17:-0.21192982 18:-0.21431579 19:-0.22273684 20:0.45838596 21:-0.54764912 22:0.12659649 23:-0.54947368 24:-0.55550877 25:-0.54807018 26:-0.56210526 27:-0.4885614 28:0.47887719 29:0.0077192982 30:-0.42273684 31:0.57192982 32:-0.29838596 33:-0.43564912 34:-0.42175439 35:0.51550877 36:0.45291228 37:0.53740351 38:0.15887719 39:0.48954386 40:0.49796491 41:0.50273684 42:-0.17459649 43:0.50161404 44:0.15550877 45:0.16491228 46:0.17992982 47:-0.50231579 48:-0.48589474 49:0.51466667 50:0.17277193 51:0.16308772 52:-0.47761404 53:0.1677193 54:0.49852632 55:0.52154386 56:0.49810526 57:0.50189474 58:-0.5045614 59:0.15494737 
1 1:-0.1602807 2:-0.16238596 3:-0.18301754 4:0.16407018 5:0.49557895 6:0.48673684 7:0.16996491 8:0.49473684 9:0.14863158 10:0.15803509 11:-0.52982456 12:-0.19312281 13:0.47410526 14:0.48701754 15:-0.20266667 16:0.12884211 17:0.45473684 18:-0.54764912 19:-0.22273684 20:0.12505263 21:0.45235088 22:0.45992982 23:0.45052632 24:0.11115789 25:-0.54807018 26:-0.22877193 27:0.5114386 28:0.47887719 29:0.67438596 30:0.24392982 31:0.57192982 32:0.3682807 33:-0.43564912 34:-0.088421053 35:0.18217544 36:0.11957895 37:0.20407018 38:0.49221053 39:-0.17712281 40:0.49796491 41:-0.16392982 42:0.15873684 43:-0.49838596 44:-0.17782456 45:-0.50175439 46:-0.15340351 47:0.16435088 48:0.18077193 49:0.18133333 50:-0.1605614 51:-0.50357895 52:-0.1442807 53:0.50105263 54:-0.16814035 55:0.18821053 56:-0.1685614 57:0.1685614 58:-0.17122807 59:0.15494737 
1 1:0.17305263 2:-0.16238596 3:0.48364912 4:0.16407018 5:0.49557895 6:-0.17992982 7:-0.16336842 8:0.49473684 9:-0.18470175 10:-0.17529825 11:-0.19649123 12:-0.19312281 13:-0.1925614 14:-0.17964912 15:0.13066667 16:-0.53782456 17:-0.21192982 18:0.11901754 19:-0.55607018 20:-0.2082807 21:0.11901754 22:-0.54007018 23:0.45052632 24:0.11115789 25:0.45192982 26:-0.22877193 27:0.5114386 28:-0.18778947 29:-0.32561404 30:-0.42273684 31:-0.094736842 32:-0.29838596 33:0.23101754 34:-0.42175439 35:0.18217544 36:0.11957895 37:-0.12926316 38:0.49221053 39:-0.17712281 40:-0.16870175 41:-0.49726316 42:-0.17459649 43:-0.16505263 44:0.48884211 45:-0.16842105 46:0.17992982 47:-0.16898246 48:0.18077193 49:0.18133333 50:-0.49389474 51:-0.17024561 52:-0.1442807 53:-0.16561404 54:-0.16814035 55:-0.14512281 56:0.16477193 57:0.50189474 58:0.16210526 59:-0.5117193 
1 1:0.50638596 2:0.17094737 3:0.15031579 4:0.16407018 5:0.49557895 6:0.15340351 7:0.16996491 8:-0.50526316 9:0.48196491 10:0.49136842 11:-0.19649123 12:0.14021053 13:0.14077193 14:0.15368421 15:0.464 16:0.12884211 17:0.12140351 18:-0.21431579 19:-0.22273684 20:0.45838596 21:0.45235088 22:0.45992982 23:0.11719298 24:0.44449123 25:0.11859649 26:0.1045614 27:0.17810526 28:0.14554386 29:-0.32561404 30:-0.089403509 31:-0.094736842 32:0.034947368 33:0.56435088 34:0.24491228 35:0.18217544 36:0.11957895 37:-0.12926316 38:-0.17445614 39:-0.51045614 40:0.16463158 41:-0.16392982 42:0.49207018 43:0.1682807 44:0.15550877 45:0.16491228 46:0.51326316 47:-0.16898246 48:0.18077193 49:0.51466667 50:0.17277193 51:0.16308772 52:0.52238596 53:-0.16561404 54:-0.16814035 55:0.18821053 56:0.49810526 57:0.50189474 58:0.4954386 59:0.4882807 
1 1:-0.49361404 2:0.5042807 3:-0.18301754 4:-0.50259649 5:-0.50442105 6:-0.17992982 7:-0.49670175 8:0.49473684 9:0.14863158 10:-0.50863158 11:-0.19649123 12:-0.19312281 13:0.14077193 14:0.15368421 15:0.13066667 16:0.46217544 17:0.45473684 18:0.11901754 19:0.44392982 20:0.45838596 21:0.11901754 22:0.12659649 23:0.11719298 24:-0.55550877 25:0.11859649 26:-0.56210526 27:-0.15522807 28:0.14554386 29:-0.32561404 30:-0.42273684 31:0.57192982 32:-0.6317193 33:-0.10231579 34:0.57824561 35:0.18217544 36:0.11957895 37:0.20407018 38:0.15887719 39:-0.51045614 40:-0.50203509 41:0.50273684 42:-0.50792982 43:0.1682807 44:-0.17782456 45:0.49824561 46:-0.48673684 47:-0.16898246 48:-0.48589474 49:0.51466667 50:0.50610526 51:0.49642105 52:0.52238596 53:0.50105263 54:-0.16814035 55:0.18821053 56:0.49810526 57:0.1685614 58:0.4954386 59:0.4882807 
1 1:-0.1602807 2:-0.4957193 3:-0.51635088 4:-0.50259649 5:-0.50442105 6:0.48673684 7:-0.16336842 8:0.16140351 9:-0.51803509 10:-0.17529825 11:0.47017544 12:0.47354386 13:-0.1925614 14:-0.51298246 15:-0.536 16:0.46217544 17:-0.21192982 18:0.11901754 19:0.44392982 20:0.45838596 21:0.11901754 22:0.12659649 23:-0.54947368 24:-0.55550877 25:-0.54807018 26:0.1045614 27:-0.4885614 28:-0.52112281 29:-0.32561404 30:-0.089403509 31:-0.094736842 32:0.3682807 33:-0.43564912 34:0.57824561 35:0.18217544 36:-0.54708772 37:0.53740351 38:-0.50778947 39:0.48954386 40:0.49796491 41:0.50273684 42:-0.17459649 43:0.1682807 44:-0.17782456 45:0.49824561 46:-0.15340351 47:-0.16898246 48:-0.48589474 49:0.51466667 50:-0.49389474 51:0.49642105 52:0.18905263 53:0.50105263 54:-0.16814035 55:-0.47845614 56:-0.50189474 57:0.1685614 58:0.16210526 59:-0.5117193 
1 1:-0.1602807 2:0.5042807 3:0.15031579 4:-0.50259649 5:-0.50442105 6:0.15340351 7:-0.49670175 8:-0.50526316 9:-0.18470175 10:0.49136842 11:-0.52982456 12:0.14021053 13:0.14077193 14:-0.17964912 15:0.464 16:-0.53782456 17:-0.54526316 18:-0.21431579 19:-0.22273684 20:-0.2082807 21:-0.54764912 22:-0.54007018 23:-0.54947368 24:-0.22217544 25:0.45192982 26:0.43789474 27:-0.15522807 28:-0.52112281 29:-0.32561404 30:-0.42273684 31:-0.42807018 32:-0.29838596 33:-0.43564912 34:-0.42175439 35:0.18217544 36:0.45291228 37:0.53740351 38:0.49221053 39:-0.17712281 40:-0.50203509 41:-0.49726316 42:-0.17459649 43:-0.49838596 44:-0.17782456 45:-0.50175439 46:-0.15340351 47:-0.50231579 48:-0.1525614 49:0.51466667 50:0.50610526 51:0.16308772 52:-0.47761404 53:-0.49894737 54:-0.16814035 55:-0.47845614 56:-0.1685614 57:-0.16477193 58:-0.17122807 59:0.15494737 
1 1:0.17305263 2:0.5042807 3:0.15031579 4:0.49740351 5:0.49557895 6:0.48673684 7:-0.16336842 8:0.49473684 9:0.14863158 10:0.15803509 11:0.47017544 12:0.47354386 13:0.47410526 14:-0.17964912 15:-0.20266667 16:-0.20449123 17:0.12140351 18:0.11901754 19:0.11059649 20:0.45838596 21:0.45235088 22:-0.20673684 23:-0.21614035 24:0.44449123 25:-0.21473684 26:-0.22877193 27:-0.4885614 28:-0.18778947 29:-0.32561404 30:-0.42273684 31:0.23859649 32:-0.6317193 33:-0.10231579 34:0.57824561 35:-0.15115789 36:0.11957895 37:-0.46259649 38:0.49221053 39:0.15621053 40:0.16463158 41:0.50273684 42:0.49207018 43:0.1682807 44:-0.51115789 45:-0.16842105 46:-0.48673684 47:-0.50231579 48:0.18077193 49:-0.48533333 50:-0.1605614 51:0.49642105 52:-0.1442807 53:0.1677193 54:-0.50147368 55:0.52154386 56:0.16477193 57:0.50189474 58:0.4954386 59:-0.5117193 
1 1:-0.49361404 2:0.5042807 3:-0.51635088 4:-0.16926316 5:-0.50442105 6:-0.17992982 7:0.16996491 8:-0.50526316 9:-0.18470175 10:-0.17529825 11:-0.52982456 12:-0.19312281 13:-0.1925614 14:-0.17964912 15:0.464 16:0.12884211 17:0.12140351 18:-0.21431579 19:-0.22273684 20:-0.54161404 21:-0.21431579 22:0.45992982 23:-0.54947368 24:0.44449123 25:0.45192982 26:-0.22877193 27:-0.15522807 28:-0.18778947 29:-0.32561404 30:0.24392982 31:-0.094736842 32:-0.29838596 33:-0.10231579 34:-0.088421053 35:-0.48449123 36:-0.21375439 37:-0.46259649 38:0.15887719 39:-0.51045614 40:0.16463158 41:-0.16392982 42:-0.17459649 43:-0.49838596 44:-0.51115789 45:-0.50175439 46:-0.15340351 47:0.49768421 48:-0.1525614 49:-0.48533333 50:-0.49389474 51:-0.17024561 52:-0.1442807 53:0.1677193 54:0.16519298 55:0.18821053 56:-0.50189474 57:0.1685614 58:0.4954386 59:0.15494737 
1 1:-0.1602807 2:-0.16238596 3:-0.18301754 4:-0.50259649 5:0.49557895 6:0.15340351 7:0.16996491 8:-0.50526316 9:0.14863158 10:0.49136842 11:0.13684211 12:-0.52645614 13:-0.52589474 14:-0.17964912 15:-0.20266667 16:0.12884211 17:0.45473684 18:0.11901754 19:0.11059649 20:0.12505263 21:0.45235088 22:0.45992982 23:-0.21614035 24:0.11115789 25:0.11859649 26:0.1045614 27:-0.4885614 28:0.14554386 29:-0.32561404 30:-0.089403509 31:-0.094736842 32:0.3682807 33:0.23101754 34:0.24491228 35:0.51550877 36:0.11957895 37:-0.46259649 38:0.49221053 39:-0.17712281 40:0.16463158 41:0.16940351 42:0.49207018 43:0.1682807 44:0.48884211 45:0.16491228 46:0.17992982 47:0.49768421 48:0.18077193 49:0.18133333 50:0.50610526 51:0.16308772 52:0.52238596 53:0.50105263 54:-0.16814035 55:0.18821053 56:0.49810526 57:-0.16477193 58:0.16210526 59:0.4882807 
1 1:0.50638596 2:-0.16238596 3:0.15031579 4:0.49740351 5:0.49557895 6:-0.17992982 7:-0.16336842 8:-0.17192982 9:0.14863158 10:0.49136842 11:0.47017544 12:0.14021053 13:-0.52589474 14:-0.17964912 15:-0.20266667 16:-0.20449123 17:0.12140351 18:0.45235088 19:-0.22273684 20:0.12505263 21:0.11901754 22:0.45992982 23:-0.21614035 24:-0.22217544 25:0.11859649 26:0.43789474 27:-0.15522807 28:0.14554386 29:-0.32561404 30:-0.089403509 31:-0.094736842 32:0.3682807 33:-0.10231579 34:0.24491228 35:-0.15115789 36:0.45291228 37:0.20407018 38:0.15887719 39:-0.17712281 40:-0.16870175 41:-0.16392982 42:-0.17459649 43:-0.49838596 44:-0.17782456 45:-0.16842105 46:0.51326316 47:0.49768421 48:0.51410526 49:0.51466667 50:0.17277193 51:0.49642105 52:0.18905263 53:0.1677193 54:-0.50147368 55:0.52154386 56:-0.50189474 57:-0.49810526 58:-0.5045614 59:0.15494737 
1 1:-0.1602807 2:0.17094737 3:-0.51635088 4:-0.16926316 5:-0.17108772 6:0.48673684 7:-0.49670175 8:-0.17192982 9:-0.18470175 10:0.49136842 11:0.13684211 12:0.14021053 13:-0.52589474 14:-0.51298246 15:-0.20266667 16:0.12884211 17:0.45473684 18:-0.21431579 19:0.11059649 20:0.12505263 21:0.11901754 22:0.12659649 23:-0.21614035 24:0.44449123 25:0.11859649 26:0.1045614 27:-0.4885614 28:-0.52112281 29:-0.32561404 30:0.24392982 31:-0.42807018 32:0.3682807 33:0.23101754 34:0.24491228 35:0.51550877 36:0.11957895 37:0.53740351 38:0.49221053 39:0.15621053 40:0.16463158 41:0.50273684 42:0.49207018 43:-0.16505263 44:0.48884211 45:0.16491228 46:0.51326316 47:-0.16898246 48:-0.1525614 49:-0.48533333 50:-0.1605614 51:0.16308772 52:0.18905263 53:0.50105263 54:-0.16814035 55:-0.14512281 56:-0.50189474 57:-0.16477193 58:-0.17122807 59:-0.5117193 
1 1:0.50638596 2:0.5042807 3:-0.18301754 4:0.16407018 5:0.16224561 6:0.15340351 7:0.16996491 8:0.49473684 9:0.14863158 10:-0.50863158 11:0.13684211 12:0.47354386 13:-0.1925614 14:0.15368421 15:0.464 16:0.46217544 17:-0.21192982 18:-0.21431579 19:0.11059649 20:0.45838596 21:0.45235088 22:-0.20673684 23:0.11719298 24:0.44449123 25:0.11859649 26:0.43789474 27:-0.15522807 28:0.14554386 29:-0.32561404 30:-0.089403509 31:-0.42807018 32:0.034947368 33:0.56435088 34:-0.088421053 35:0.51550877 36:-0.21375439 37:-0.12926316 38:-0.17445614 39:0.15621053 40:0.49796491 41:-0.16392982 42:0.15873684 43:-0.16505263 44:-0.51115789 45:0.16491228 46:0.17992982 47:0.49768421 48:0.18077193 49:0.51466667 50:-0.1605614 51:0.49642105 52:0.52238596 53:0.1677193 54:-0.16814035 55:-0.47845614 56:-0.1685614 57:-0.49810526 58:-0.5045614 59:-0.17838596 
1 1:0.17305263 2:-0.4957193 3:0.48364912 4:-0.50259649 5:0.16224561 6:0.48673684 7:0.50329825 8:-0.17192982 9:0.48196491 10:-0.17529825 11:0.13684211 12:0.47354386 13:-0.52589474 14:0.48701754 15:0.13066667 16:0.12884211 17:0.12140351 18:0.11901754 19:0.44392982 20:-0.2082807 21:0.11901754 22:0.12659649 23:0.11719298 24:0.44449123 25:0.45192982 26:0.1045614 27:0.5114386 28:-0.52112281 29:-0.32561404 30:-0.42273684 31:0.57192982 32:0.034947368 33:0.56435088 34:0.24491228 35:-0.48449123 36:0.45291228 37:0.53740351 38:-0.17445614 39:0.48954386 40:-0.16870175 41:0.50273684 42:-0.50792982 43:0.50161404 44:0.48884211 45:0.49824561 46:0.51326316 47:-0.50231579 48:-0.48589474 49:-0.48533333 50:0.50610526 51:0.49642105 52:-0.47761404 53:-0.49894737 54:-0.16814035 55:-0.47845614 56:-0.1685614 57:-0.49810526 58:-0.5045614 59:0.4882807 
1 1:0.17305263 2:0.5042807 3:-0.18301754 4:-0.50259649 5:-0.50442105 6:0.15340351 7:0.50329825 8:0.49473684 9:0.14863158 10:-0.50863158 11:0.47017544 12:0.14021053 13:0.47410526 14:-0.17964912 15:0.13066667 16:-0.53782456 17:-0.21192982 18:0.11901754 19:0.44392982 20:-0.2082807 21:-0.21431579 22:-0.54007018 23:-0.54947368 24:0.44449123 25:-0.21473684 26:0.1045614 27:0.17810526 28:0.47887719 29:0.0077192982 30:-0.089403509 31:-0.42807018 32:-0.29838596 33:0.56435088 34:0.24491228 35:0.51550877 36:0.45291228 37:-0.12926316 38:0.15887719 39:0.48954386 40:0.49796491 41:-0.49726316 42:-0.17459649 43:-0.16505263 44:-0.17782456 45:0.16491228 46:-0.48673684 47:-0.16898246 48:-0.48589474 49:0.18133333 50:-0.49389474 51:-0.50357895 52:-0.47761404 53:-0.49894737 54:-0.50147368 55:-0.14512281 56:-0.50189474 57:-0.16477193 58:-0.5045614 59:-0.17838596 
1 1:0.50638596 2:0.17094737 3:0.48364912 4:-0.16926316 5:0.16224561 6:0.48673684 7:0.16996491 8:-0.50526316 9:0.14863158 10:-0.17529825 11:0.13684211 12:0.47354386 13:0.14077193 14:0.15368421 15:0.13066667 16:0.12884211 17:-0.21192982 18:0.11901754 19:0.11059649 20:-0.2082807 21:0.11901754 22:-0.20673684 23:-0.21614035 24:0.44449123 25:0.11859649 26:0.1045614 27:0.17810526 28:0.14554386 29:-0.32561404 30:-0.089403509 31:-0.094736842 32:0.3682807 33:-0.43564912 34:0.57824561 35:-0.15115789 36:-0.21375439 37:-0.46259649 38:-0.17445614 39:0.48954386 40:0.16463158 41:-0.16392982 42:-0.17459649 43:0.1682807 44:-0.17782456 45:-0.16842105 46:-0.15340351 47:0.16435088 48:-0.48589474 49:0.51466667 50:0.50610526 51:0.16308772 52:-0.47761404 53:0.1677193 54:-0.16814035 55:-0.47845614 56:-0.1685614 57:-0.49810526 58:0.16210526 59:0.15494737 
1 1:-0.1602807 2:-0.4957193 3:-0.18301754 4:-0.16926316 5:-0.50442105 6:-0.17992982 7:0.16996491 8:0.49473684 9:-0.51803509 10:0.15803509 11:-0.19649123 12:0.14021053 13:0.14077193 14:-0.51298246 15:0.13066667 16:0.12884211 17:0.45473684 18:-0.21431579 19:0.44392982 20:-0.2082807 21:-0.21431579 22:-0.20673684 23:-0.54947368 24:0.11115789 25:0.11859649 26:0.43789474 27:-0.15522807 28:0.14554386 29:0.67438596 30:-0.089403509 31:0.57192982 32:0.3682807 33:-0.43564912 34:-0.088421053 35:-0.48449123 36:-0.21375439 37:0.20407018 38:0.49221053 39:-0.17712281 40:-0.50203509 41:0.16940351 42:0.15873684 43:0.1682807 44:0.48884211 45:-0.16842105 46:-0.15340351 47:-0.50231579 48:-0.1525614 49:-0.48533333 50:-0.49389474 51:-0.17024561 52:-0.1442807 53:-0.16561404 54:0.49852632 55:-0.14512281 56:-0.50189474 57:0.1685614 58:0.16210526 59:-0.5117193 
1 1:-0.1602807 2:-0.4957193 3:0.48364912 4:-0.16926316 5:-0.17108772 6:0.48673684 7:-0.16336842 8:-0.17192982 9:-0.18470175 10:-0.50863158 11:0.13684211 12:-0.52645614 13:0.47410526 14:0.15368421 15:-0.536 16:-0.53782456 17:-0.54526316 18:0.11901754 19:0.44392982 20:-0.2082807 21:0.11901754 22:-0.20673684 23:0.11719298 24:0.44449123 25:-0.21473684 26:0.1045614 27:0.17810526 28:0.47887719 29:0.34105263 30:0.24392982 31:-0.094736842 32:0.3682807 33:-0.10231579 34:-0.42175439 35:-0.48449123 36:-0.54708772 37:-0.12926316 38:-0.17445614 39:0.15621053 40:-0.50203509 41:-0.16392982 42:-0.50792982 43:0.50161404 44:0.48884211 45:0.16491228 46:-0.48673684 47:0.16435088 48:0.18077193 49:-0.48533333 50:0.50610526 51:0.16308772 52:0.52238596 53:0.1677193 54:-0.50147368 55:-0.47845614 56:-0.1685614 57:-0.49810526 58:-0.17122807 59:-0.5117193 
1 1:-0.1602807 2:0.17094737 3:0.48364912 4:-0.16926316 5:0.16224561 6:-0.17992982 7:0.16996491 8:0.16140351 9:0.48196491 10:0.49136842 11:-0.19649123 12:-0.19312281 13:-0.1925614 14:0.15368421 15:0.13066667 16:0.46217544 17:0.12140351 18:0.45235088 19:-0.22273684 20:0.12505263 21:0.45235088 22:-0.20673684 23:0.11719298 24:-0.55550877 25:-0.21473684 26:0.1045614 27:0.17810526 28:0.14554386 29:0.0077192982 30:-0.089403509 31:-0.094736842 32:0.3682807 33:-0.10231579 34:-0.42175439 35:-0.15115789 36:0.11957895 37:-0.12926316 38:-0.17445614 39:-0.17712281 40:-0.16870175 41:0.16940351 42:-0.50792982 43:-0.49838596 44:-0.17782456 45:-0.16842105 46:0.17992982 47:-0.16898246 48:0.18077193 49:0.51466667 50:0.17277193 51:0.16308772 52:-0.1442807 53:-0.16561404 54:-0.16814035 55:-0.14512281 56:0.16477193 57:0.1685614 58:-0.5045614 59:-0.17838596 
1 1:-0.1602807 2:0.5042807 3:0.48364912 4:-0.16926316 5:-0.50442105 6:-0.17992982 7:-0.16336842 8:-0.17192982 9:-0.18470175 10:-0.17529825 11:0.13684211 12:0.47354386 13:-0.1925614 14:0.48701754 15:-0.20266667 16:-0.53782456 17:0.12140351 18:0.11901754 19:0.11059649 20:-0.54161404 21:0.45235088 22:-0.20673684 23:-0.54947368 24:0.44449123 25:0.11859649 26:-0.56210526 27:0.5114386 28:-0.18778947 29:0.34105263 30:0.24392982 31:-0.42807018 32:0.3682807 33:0.56435088 34:-0.088421053 35:0.18217544 36:-0.54708772 37:0.20407018 38:0.49221053 39:0.15621053 40:0.16463158 41:-0.49726316 42:-0.17459649 43:0.1682807 44:0.15550877 45:0.49824561 46:-0.48673684 47:-0.16898246 48:-0.1525614 49:0.51466667 50:-0.1605614 51:-0.50357895 52:0.18905263 53:-0.49894737 54:-0.16814035 55:-0.47845614 56:-0.1685614 57:-0.16477193 58:-0.17122807 59:-0.5117193 
1 1:-0.49361404 2:-0.4957193 3:-0.51635088 4:-0.16926316 5:-0.50442105 6:-0.51326316 7:-0.16336842 8:-0.50526316 9:-0.18470175 10:-0.50863158 11:-0.19649123 12:-0.52645614 13:0.47410526 14:-0.51298246 15:-0.536 16:-0.20449123 17:0.45473684 18:0.11901754 19:0.11059649 20:-0.54161404 21:-0.21431579 22:0.12659649 23:0.45052632 24:-0.22217544 25:-0.54807018 26:-0.22877193 27:-0.15522807 28:-0.52112281 29:0.0077192982 30:0.57726316 31:0.23859649 32:0.3682807 33:-0.10231579 34:0.57824561 35:-0.15115789 36:0.45291228 37:0.53740351 38:-0.50778947 39:0.48954386 40:-0.16870175 41:-0.16392982 42:-0.17459649 43:-0.49838596 44:0.48884211 45:-0.50175439 46:-0.48673684 47:0.49768421 48:0.18077193 49:-0.152 50:-0.1605614 51:-0.50357895 52:-0.47761404 53:0.50105263 54:0.49852632 55:0.52154386 56:-0.1685614 57:0.50189474 58:-0.5045614 59:0.15494737 
0.2392438538306549 1:0.17305263 2:-0.4957193 3:-0.18301754 4:-0.50259649 5:-0.17108772 6:0.15340351 7:0.50329825 8:-0.17192982 9:0.14863158 10:-0.17529825 11:-0.52982456 12:-0.19312281 13:-0.1925614 14:-0.51298246 15:-0.20266667 16:-0.53782456 17:-0.21192982 18:-0.21431579 19:-0.55607018 20:-0.54161404 21:0.45235088 22:0.12659649 23:0.45052632 24:0.11115789 25:0.11859649 26:-0.22877193 27:-0.15522807 28:-0.18778947 29:-0.32561404 30:-0.089403509 31:-0.42807018 32:-0.6317193 33:0.23101754 34:-0.088421053 35:-0.15115789 36:-0.21375439 37:0.53740351 38:-0.50778947 39:0.48954386 40:-0.16870175 41:-0.49726316 42:-0.17459649 43:0.50161404 44:-0.17782456 45:0.49824561 46:-0.15340351 47:-0.50231579 48:-0.1525614 49:0.51466667 50:-0.1605614 51:-0.17024561 52:0.18905263 53:-0.16561404 54:0.16519298 55:0.52154386 56:-0.50189474 57:0.50189474 58:-0.5045614 59:-0.5117193 
1 1:-0.1602807 2:-0.4957193 3:-0.51635088 4:-0.16926316 5:-0.17108772 6:0.15340351 7:0.50329825 8:0.49473684 9:-0.51803509 10:0.49136842 11:-0.19649123 12:0.47354386 13:-0.1925614 14:-0.17964912 15:-0.536 16:0.46217544 17:-0.21192982 18:-0.54764912 19:0.44392982 20:-0.54161404 21:0.11901754 22:0.45992982 23:0.11719298 24:0.11115789 25:0.45192982 26:-0.22877193 27:0.17810526 28:0.47887719 29:0.0077192982 30:-0.42273684 31:-0.42807018 32:0.034947368 33:-0.43564912 34:-0.088421053 35:-0.48449123 36:0.45291228 37:-0.12926316 38:-0.50778947 39:-0.51045614 40:-0.50203509 41:-0.16392982 42:0.15873684 43:-0.49838596 44:-0.17782456 45:-0.50175439 46:-0.48673684 47:0.16435088 48:-0.1525614 49:0.51466667 50:-0.1605614 51:-0.50357895 52:-0.1442807 53:0.1677193 54:-0.50147368 55:-0.14512281 56:-0.50189474 57:-0.16477193 58:-0.17122807 59:-0.5117193 
1 1:0.50638596 2:0.17094737 3:0.48364912 4:0.16407018 5:-0.50442105 6:-0.17992982 7:0.16996491 8:0.49473684 9:-0.51803509 10:-0.50863158 11:0.47017544 12:0.47354386 13:0.47410526 14:0.48701754 15:0.464 16:-0.53782456 17:-0.54526316 18:0.45235088 19:0.44392982 20:0.45838596 21:-0.54764912 22:0.45992982 23:0.45052632 24:0.44449123 25:0.45192982 26:0.43789474 27:0.5114386 28:0.47887719 29:-0.32561404 30:-0.089403509 31:-0.42807018 32:-0.29838596 33:-0.43564912 34:0.57824561 35:-0.48449123 36:0.11957895 37:-0.12926316 38:-0.17445614 39:0.48954386 40:0.16463158 41:0.16940351 42:0.15873684 43:-0.49838596 44:0.15550877 45:0.49824561 46:0.17992982 47:0.49768421 48:-0.1525614 49:0.51466667 50:0.50610526 51:0.49642105 52:0.18905263 53:0.1677193 54:0.16519298 55:-0.47845614 56:-0.1685614 57:-0.16477193 58:0.16210526 59:0.4882807 
1 1:-0.1602807 2:0.17094737 3:-0.18301754 4:0.49740351 5:0.16224561 6:0.15340351 7:-0.16336842 8:-0.50526316 9:0.14863158 10:0.49136842 11:-0.19649123 12:0.14021053 13:-0.1925614 14:-0.17964912 15:-0.20266667 16:-0.20449123 17:0.12140351 18:-0.54764912 19:-0.22273684 20:0.45838596 21:-0.21431579 22:-0.54007018 23:-0.54947368 24:-0.22217544 25:0.11859649 26:-0.56210526 27:0.17810526 28:0.47887719 29:0.0077192982 30:0.24392982 31:0.23859649 32:0.3682807 33:-0.10231579 34:0.24491228 35:-0.48449123 36:-0.21375439 37:-0.46259649 38:0.15887719 39:0.15621053 40:-0.16870175 41:0.50273684 42:0.49207018 43:0.50161404 44:-0.17782456 45:-0.16842105 46:-0.48673684 47:-0.50231579 48:0.18077193 49:-0.48533333 50:-0.49389474 51:-0.17024561 52:0.18905263 53:0.1677193 54:-0.50147368 55:-0.47845614 56:0.16477193 57:-0.49810526 58:-0.17122807 59:0.4882807 
1 1:0.50638596 2:0.17094737 3:-0.18301754 4:-0.50259649 5:-0.17108772 6:-0.51326316 7:0.16996491 8:0.49473684 9:-0.18470175 10:-0.17529825 11:0.13684211 12:0.14021053 13:-0.52589474 14:-0.17964912 15:-0.536 16:0.46217544 17:-0.21192982 18:0.11901754 19:0.44392982 20:0.12505263 21:-0.21431579 22:0.45992982 23:-0.21614035 24:-0.22217544 25:-0.54807018 26:-0.56210526 27:0.5114386 28:0.47887719 29:0.67438596 30:-0.089403509 31:-0.094736842 32:0.3682807 33:-0.43564912 34:0.57824561 35:-0.15115789 36:-0.54708772 37:-0.46259649 38:-0.17445614 39:0.15621053 40:0.49796491 41:-0.16392982 42:0.15873684 43:0.50161404 44:0.15550877 45:-0.50175439 46:0.51326316 47:0.49768421 48:-0.48589474 49:0.18133333 50:0.17277193 51:0.49642105 52:0.18905263 53:0.50105263 54:0.49852632 55:0.52154386 56:0.49810526 57:-0.16477193 58:0.4954386 59:0.15494737 
1 1:-0.49361404 2:0.5042807 3:0.48364912 4:-0.16926316 5:0.49557895 6:0.48673684 7:0.50329825 8:-0.50526316 9:-0.51803509 10:0.49136842 11:-0.52982456 12:-0.19312281 13:-0.52589474 14:-0.51298246 15:-0.20266667 16:0.12884211 17:-0.54526316 18:-0.21431579 19:0.44392982 20:0.45838596 21:0.11901754 22:0.45992982 23:0.45052632 24:0.11115789 25:-0.54807018 26:-0.22877193 27:0.5114386 28:0.47887719 29:0.0077192982 30:0.24392982 31:-0.42807018 32:-0.6317193 33:-0.43564912 34:-0.088421053 35:-0.15115789 36:0.45291228 37:0.53740351 38:0.15887719 39:0.48954386 40:0.49796491 41:0.50273684 42:-0.17459649 43:0.1682807 44:-0.51115789 45:-0.16842105 46:0.51326316 47:-0.50231579 48:-0.1525614 49:-0.48533333 50:-0.49389474 51:0.49642105 52:0.52238596 53:0.50105263 54:0.49852632 55:0.18821053 56:0.49810526 57:0.1685614 58:-0.5045614 59:-0.17838596 
1 1:0.50638596 2:0.17094737 3:-0.51635088 4:-0.16926316 5:0.49557895 6:-0.17992982 7:0.16996491 8:0.16140351 9:0.14863158 10:0.49136842 11:0.47017544 12:0.14021053 13:0.47410526 14:-0.51298246 15:0.464 16:0.12884211 17:-0.54526316 18:0.45235088 19:0.11059649 20:-0.54161404 21:-0.54764912 22:0.45992982 23:-0.21614035 24:-0.22217544 25:-0.21473684 26:-0.56210526 27:0.5114386 28:-0.18778947 29:0.0077192982 30:0.57726316 31:0.23859649 32:0.3682807 33:-0.10231579 34:-0.42175439 35:0.51550877 36:0.45291228 37:-0.46259649 38:-0.50778947 39:-0.17712281 40:-0.16870175 41:0.16940351 42:0.15873684 43:0.50161404 44:-0.17782456 45:-0.16842105 46:0.17992982 47:0.49768421 48:0.18077193 49:0.18133333 50:0.17277193 51:-0.50357895 52:0.18905263 53:0.50105263 54:-0.16814035 55:-0.14512281 56:0.16477193 57:0.50189474 58:-0.5045614 59:0.15494737 
1 1:0.50638596 2:0.17094737 3:0.48364912 4:0.16407018 5:-0.50442105 6:-0.51326316 7:0.50329825 8:0.16140351 9:0.14863158 10:0.49136842 11:0.47017544 12:0.47354386 13:0.14077193 14:0.15368421 15:0.13066667 16:0.46217544 17:-0.21192982 18:0.45235088 19:-0.55607018 20:-0.54161404 21:0.11901754 22:0.45992982 23:0.11719298 24:0.11115789 25:0.45192982 26:-0.22877193 27:0.17810526 28:0.14554386 29:-0.32561404 30:-0.089403509 31:-0.42807018 32:-0.29838596 33:0.56435088 34:0.57824561 35:0.18217544 36:0.11957895 37:0.53740351 38:-0.17445614 39:-0.17712281 40:-0.50203509 41:0.50273684 42:-0.17459649 43:-0.49838596 44:0.48884211 45:-0.16842105 46:-0.48673684 47:0.16435088 48:-0.48589474 49:0.51466667 50:0.50610526 51:-0.50357895 52:0.18905263 53:0.50105263 54:-0.16814035 55:-0.47845614 56:0.49810526 57:-0.16477193 58:-0.5045614 59:0.15494737 
1 1:-0.1602807 2:0.17094737 3:0.48364912 4:-0.16926316 5:0.16224561 6:0.48673684 7:-0.16336842 8:0.16140351 9:0.48196491 10:-0.17529825 11:0.13684211 12:0.47354386 13:-0.52589474 14:-0.51298246 15:0.464 16:0.12884211 17:0.45473684 18:0.45235088 19:0.11059649 20:-0.54161404 21:-0.21431579 22:-0.20673684 23:-0.21614035 24:0.11115789 25:-0.54807018 26:0.1045614 27:0.5114386 28:-0.18778947 29:0.34105263 30:0.57726316 31:-0.094736842 32:0.034947368 33:0.56435088 34:-0.088421053 35:0.18217544 36:0.11957895 37:0.53740351 38:0.49221053 39:0.48954386 40:-0.50203509 41:-0.16392982 42:0.49207018 43:0.1682807 44:-0.17782456 45:0.16491228 46:0.51326316 47:-0.16898246 48:-0.48589474 49:-0.152 50:-0.1605614 51:-0.50357895 52:-0.47761404 53:-0.49894737 54:-0.50147368 55:-0.47845614 56:0.49810526 57:-0.49810526 58:-0.5045614 59:-0.5117193 
1 1:0.17305263 2:0.5042807 3:0.15031579 4:0.49740351 5:0.16224561 6:0.15340351 7:0.16996491 8:0.49473684 9:0.14863158 10:0.15803509 11:0.13684211 12:0.47354386 13:-0.1925614 14:-0.51298246 15:-0.20266667 16:0.12884211 17:0.45473684 18:-0.21431579 19:-0.22273684 20:-0.54161404 21:-0.21431579 22:0.12659649 23:-0.54947368 24:-0.55550877 25:0.11859649 26:-0.56210526 27:-0.15522807 28:0.14554386 29:-0.32561404 30:-0.089403509 31:-0.094736842 32:-0.6317193 33:-0.43564912 34:0.24491228 35:-0.48449123 36:-0.21375439 37:0.20407018 38:-0.50778947 39:0.48954386 40:0.16463158 41:-0.49726316 42:-0.17459649 43:-0.16505263 44:-0.51115789 45:-0.16842105 46:0.17992982 47:-0.50231579 48:-0.1525614 49:0.18133333 50:-0.49389474 51:-0.17024561 52:0.18905263 53:-0.49894737 54:-0.16814035 55:-0.14512281 56:-0.50189474 57:-0.16477193 58:0.16210526 59:-0.5117193 
1 1:-0.1602807 2:0.5042807 3:0.48364912 4:0.16407018 5:-0.17108772 6:0.48673684 7:-0.16336842 8:-0.17192982 9:-0.18470175 10:-0.17529825 11:-0.19649123 12:0.14021053 13:0.14077193 14:-0.51298246 15:0.13066667 16:0.46217544 17:0.45473684 18:0.45235088 19:-0.22273684 20:0.12505263 21:-0.21431579 22:-0.20673684 23:0.11719298 24:0.11115789 25:0.45192982 26:0.43789474 27:0.5114386 28:-0.18778947 29:-0.32561404 30:-0.089403509 31:-0.094736842 32:-0.6317193 33:-0.10231579 34:0.24491228 35:0.18217544 36:-0.21375439 37:-0.12926316 38:-0.50778947 39:-0.17712281 40:0.16463158 41:0.50273684 42:-0.17459649 43:0.1682807 44:0.48884211 45:0.16491228 46:-0.15340351 47:0.16435088 48:0.18077193 49:0.18133333 50:-0.49389474 51:-0.17024561 52:-0.1442807 53:-0.49894737 54:0.16519298 55:-0.47845614 56:0.49810526 57:0.1685614 58:0.16210526 59:-0.17838596 
1 1:-0.1602807 2:-0.16238596 3:0.48364912 4:-0.16926316 5:-0.17108772 6:-0.51326316 7:0.50329825 8:0.49473684 9:0.48196491 10:-0.50863158 11:-0.52982456 12:0.14021053 13:-0.52589474 14:0.48701754 15:0.464 16:0.46217544 17:0.12140351 18:0.45235088 19:0.44392982 20:0.45838596 21:0.45235088 22:0.45992982 23:-0.54947368 24:0.44449123 25:0.45192982 26:0.43789474 27:0.17810526 28:0.14554386 29:-0.32561404 30:-0.089403509 31:-0.42807018 32:0.3682807 33:0.56435088 34:0.57824561 35:0.51550877 36:0.11957895 37:0.20407018 38:0.15887719 39:0.15621053 40:-0.50203509 41:-0.49726316 42:0.15873684 43:-0.49838596 44:-0.51115789 45:-0.50175439 46:-0.48673684 47:0.16435088 48:0.18077193 49:0.18133333 50:0.50610526 51:-0.17024561 52:-0.1442807 53:-0.49894737 54:-0.50147368 55:-0.47845614 56:-0.50189474 57:-0.49810526 58:0.4954386 59:0.4882807 
1 1:-0.49361404 2:0.17094737 3:-0.18301754 4:-0.16926316 5:0.16224561 6:-0.17992982 7:0.16996491 8:-0.50526316 9:0.14863158 10:0.15803509 11:0.13684211 12:0.14021053 13:-0.52589474 14:-0.17964912 15:-0.536 16:0.12884211 17:0.45473684 18:-0.54764912 19:0.11059649 20:0.45838596 21:0.45235088 22:0.12659649 23:0.11719298 24:0.44449123 25:-0.54807018 26:0.43789474 27:-0.4885614 28:-0.52112281 29:-0.32561404 30:0.57726316 31:0.57192982 32:0.3682807 33:0.23101754 34:0.57824561 35:0.18217544 36:0.11957895 37:0.53740351 38:-0.17445614 39:-0.17712281 40:-0.16870175 41:-0.49726316 42:-0.50792982 43:-0.49838596 44:0.15550877 45:0.16491228 46:0.51326316 47:-0.16898246 48:0.18077193 49:0.18133333 50:0.50610526 51:0.49642105 52:0.52238596 53:-0.16561404 54:0.49852632 55:-0.47845614 56:0.49810526 57:-0.16477193 58:0.4954386 59:-0.17838596 
1 1:0.17305263 2:-0.4957193 3:-0.18301754 4:0.49740351 5:0.16224561 6:0.48673684 7:-0.16336842 8:-0.50526316 9:0.48196491 10:0.49136842 11:0.13684211 12:0.47354386 13:-0.1925614 14:0.15368421 15:0.13066667 16:0.12884211 17:-0.21192982 18:-0.21431579 19:-0.55607018 20:-0.2082807 21:0.45235088 22:-0.54007018 23:-0.54947368 24:-0.22217544 25:-0.54807018 26:0.1045614 27:-0.4885614 28:0.47887719 29:0.67438596 30:-0.089403509 31:-0.42807018 32:0.034947368 33:-0.10231579 34:-0.088421053 35:-0.15115789 36:-0.54708772 37:-0.12926316 38:0.15887719 39:0.48954386 40:-0.16870175 41:-0.16392982 42:-0.17459649 43:-0.16505263 44:-0.17782456 45:0.16491228 46:0.51326316 47:0.49768421 48:0.18077193 49:-0.152 50:0.50610526 51:-0.17024561 52:0.18905263 53:0.50105263 54:-0.16814035 55:-0.14512281 56:-0.1685614 57:-0.16477193 58:0.16210526 59:0.4882807 
1 1:0.50638596 2:-0.16238596 3:-0.18301754 4:0.16407018 5:-0.50442105 6:0.48673684 7:0.50329825 8:0.49473684 9:-0.51803509 10:0.15803509 11:0.47017544 12:0.47354386 13:0.47410526 14:0.15368421 15:0.464 16:0.12884211 17:0.45473684 18:0.11901754 19:-0.55607018 20:0.45838596 21:-0.21431579 22:-0.54007018 23:0.45052632 24:0.44449123 25:-0.54807018 26:0.1045614 27:-0.4885614 28:-0.52112281 29:-0.32561404 30:-0.089403509 31:-0.094736842 32:0.034947368 33:0.56435088 34:0.24491228 35:0.18217544 36:-0.54708772 37:0.20407018 38:-0.50778947 39:-0.51045614 40:-0.16870175 41:0.50273684 42:0.15873684 43:-0.49838596 44:0.48884211 45:0.16491228 46:-0.48673684 47:0.49768421 48:0.18077193 49:0.51466667 50:0.17277193 51:-0.17024561 52:0.52238596 53:-0.16561404 54:0.49852632 55:0.18821053 56:0.49810526 57:-0.49810526 58:-0.17122807 59:-0.17838596 
1 1:0.50638596 2:0.17094737 3:0.48364912 4:-0.50259649 5:0.49557895 6:0.48673684 7:-0.49670175 8:-0.50526316 9:-0.51803509 10:0.49136842 11:0.47017544 12:0.14021053 13:0.14077193 14:0.48701754 15:-0.20266667 16:-0.53782456 17:0.45473684 18:0.45235088 19:0.44392982 20:0.45838596 21:-0.54764912 22:0.45992982 23:0.45052632 24:0.44449123 25:0.11859649 26:0.43789474 27:-0.15522807 28:0.47887719 29:-0.32561404 30:-0.089403509 31:-0.094736842 32:-0.6317193 33:0.23101754 34:0.57824561 35:-0.15115789 36:-0.54708772 37:-0.46259649 38:0.15887719 39:-0.17712281 40:0.49796491 41:0.16940351 42:0.49207018 43:0.50161404 44:-0.17782456 45:0.16491228 46:0.51326316 47:0.16435088 48:-0.1525614 49:-0.48533333 50:-0.1605614 51:-0.50357895 52:0.52238596 53:-0.16561404 54:0.49852632 55:-0.14512281 56:-0.50189474 57:0.50189474 58:-0.17122807 59:-0.5117193 
1 1:-0.1602807 2:-0.16238596 3:-0.51635088 4:-0.50259649 5:0.49557895 6:-0.17992982 7:-0.16336842 8:0.49473684 9:-0.18470175 10:-0.50863158 11:0.13684211 12:0.47354386 13:-0.1925614 14:-0.17964912 15:-0.536 16:0.12884211 17:0.45473684 18:0.45235088 19:0.44392982 20:0.12505263 21:0.11901754 22:-0.54007018 23:-0.21614035 24:-0.55550877 25:0.45192982 26:0.1045614 27:0.17810526 28:0.47887719 29:0.0077192982 30:-0.089403509 31:0.57192982 32:-0.29838596 33:-0.43564912 34:0.57824561 35:-0.15115789 36:0.11957895 37:0.53740351 38:-0.17445614 39:-0.17712281 40:-0.50203509 41:-0.49726316 42:-0.50792982 43:0.50161404 44:-0.17782456 45:-0.50175439 46:0.17992982 47:0.49768421 48:0.18077193 49:0.18133333 50:0.17277193 51:0.16308772 52:-0.47761404 53:-0.16561404 54:0.16519298 55:-0.14512281 56:0.49810526 57:-0.16477193 58:-0.17122807 59:-0.5117193 
1 1:0.17305263 2:0.17094737 3:-0.18301754 4:0.49740351 5:-0.17108772 6:-0.17992982 7:0.50329825 8:0.16140351 9:-0.51803509 10:-0.17529825 11:0.13684211 12:-0.52645614 13:-0.1925614 14:0.15368421 15:-0.536 16:-0.20449123 17:0.12140351 18:-0.54764912 19:0.11059649 20:-0.2082807 21:-0.54764912 22:0.12659649 23:0.45052632 24:0.44449123 25:0.11859649 26:0.1045614 27:-0.15522807 28:0.14554386 29:0.34105263 30:0.57726316 31:0.23859649 32:0.034947368 33:-0.10231579 34:0.24491228 35:-0.48449123 36:-0.21375439 37:-0.12926316 38:0.49221053 39:-0.17712281 40:-0.16870175 41:0.16940351 42:0.49207018 43:-0.49838596 44:0.48884211 45:-0.16842105 46:-0.15340351 47:-0.50231579 48:-0.1525614 49:-0.152 50:-0.49389474 51:-0.17024561 52:-0.1442807 53:0.50105263 54:0.49852632 55:-0.47845614 56:0.16477193 57:-0.16477193 58:-0.17122807 59:0.15494737 
1 1:-0.49361404 2:-0.4957193 3:0.15031579 4:-0.50259649 5:-0.50442105 6:0.15340351 7:-0.49670175 8:-0.50526316 9:-0.18470175 10:-0.50863158 11:-0.52982456 12:-0.52645614 13:0.14077193 14:0.15368421 15:0.464 16:0.12884211 17:0.12140351 18:0.45235088 19:-0.55607018 20:0.45838596 21:-0.21431579 22:0.12659649 23:-0.54947368 24:-0.22217544 25:-0.54807018 26:0.43789474 27:-0.15522807 28:-0.18778947 29:0.0077192982 30:0.24392982 31:0.23859649 32:0.3682807 33:0.56435088 34:-0.42175439 35:-0.48449123 36:-0.54708772 37:0.53740351 38:-0.50778947 39:0.15621053 40:-0.16870175 41:-0.16392982 42:0.15873684 43:0.50161404 44:-0.17782456 45:-0.16842105 46:0.51326316 47:-0.16898246 48:-0.1525614 49:-0.48533333 50:-0.1605614 51:0.49642105 52:-0.1442807 53:-0.16561404 54:-0.16814035 55:-0.47845614 56:-0.50189474 57:0.1685614 58:-0.5045614 59:0.15494737 
1 1:0.50638596 2:0.5042807 3:0.15031579 4:0.49740351 5:0.16224561 6:-0.51326316 7:-0.16336842 8:-0.17192982 9:-0.51803509 10:0.49136842 11:0.47017544 12:0.47354386 13:-0.1925614 14:0.48701754 15:-0.20266667 16:-0.20449123 17:0.12140351 18:-0.54764912 19:0.11059649 20:0.12505263 21:0.45235088 22:0.45992982 23:0.11719298 24:0.44449123 25:-0.21473684 26:-0.56210526 27:0.17810526 28:0.47887719 29:0.0077192982 30:0.57726316 31:0.23859649 32:-0.6317193 33:-0.43564912 34:-0.42175439 35:0.18217544 36:0.45291228 37:-0.12926316 38:0.49221053 39:0.48954386 40:0.16463158 41:0.50273684 42:0.49207018 43:-0.16505263 44:0.48884211 45:0.16491228 46:-0.48673684 47:-0.50231579 48:0.51410526 49:0.18133333 50:0.50610526 51:0.16308772 52:-0.47761404 53:0.1677193 54:-0.50147368 55:-0.14512281 56:-0.1685614 57:0.1685614 58:0.4954386 59:0.15494737 
1 1:-0.49361404 2:-0.4957193 3:-0.18301754 4:-0.50259649 5:-0.50442105 6:0.48673684 7:-0.16336842 8:0.16140351 9:0.48196491 10:0.49136842 11:-0.52982456 12:0.14021053 13:-0.52589474 14:-0.51298246 15:0.464 16:-0.53782456 17:-0.54526316 18:-0.54764912 19:0.11059649 20:0.45838596 21:0.11901754 22:0.45992982 23:0.11719298 24:0.11115789 25:0.45192982 26:0.1045614 27:0.17810526 28:-0.52112281 29:0.0077192982 30:-0.089403509 31:-0.094736842 32:0.3682807 33:0.23101754 34:0.57824561 35:0.51550877 36:0.11957895 37:0.20407018 38:0.49221053 39:-0.17712281 40:-0.16870175 41:-0.49726316 42:0.49207018 43:0.1682807 44:-0.51115789 45:0.16491228 46:-0.48673684 47:-0.50231579 48:0.18077193 49:-0.152 50:0.17277193 51:0.16308772 52:0.18905263 53:0.50105263 54:0.16519298 55:0.18821053 56:0.16477193 57:0.1685614 58:-0.17122807 59:-0.5117193 
1 1:-0.1602807 2:0.5042807 3:0.48364912 4:0.49740351 5:0.49557895 6:0.48673684 7:-0.16336842 8:-0.50526316 9:0.48196491 10:0.15803509 11:-0.52982456 12:0.14021053 13:-0.1925614 14:0.15368421 15:0.464 16:0.46217544 17:0.12140351 18:0.45235088 19:-0.55607018 20:0.45838596 21:-0.21431579 22:-0.20673684 23:-0.54947368 24:-0.22217544 25:0.45192982 26:0.1045614 27:0.17810526 28:-0.52112281 29:-0.32561404 30:-0.089403509 31:-0.42807018 32:-0.6317193 33:0.56435088 34:0.57824561 35:-0.48449123 36:0.11957895 37:0.20407018 38:-0.50778947 39:0.48954386 40:-0.50203509 41:-0.49726316 42:-0.17459649 43:-0.16505263 44:0.15550877 45:-0.50175439 46:-0.48673684 47:0.49768421 48:-0.1525614 49:0.51466667 50:0.50610526 51:0.49642105 52:0.18905263 53:0.50105263 54:-0.16814035 55:-0.47845614 56:-0.50189474 57:-0.16477193 58:-0.5045614 59:0.4882807 
1 1:-0.1602807 2:-0.16238596 3:0.15031579 4:0.16407018 5:0.49557895 6:0.15340351 7:-0.16336842 8:-0.17192982 9:0.14863158 10:-0.17529825 11:0.13684211 12:0.14021053 13:0.47410526 14:0.15368421 15:-0.20266667 16:0.12884211 17:-0.21192982 18:-0.21431579 19:0.11059649 20:0.12505263 21:-0.21431579 22:0.12659649 23:-0.21614035 24:0.11115789 25:-0.21473684 26:0.43789474 27:-0.15522807 28:-0.18778947 29:0.34105263 30:0.24392982 31:-0.094736842 32:0.3682807 33:-0.10231579 34:0.24491228 35:-0.15115789 36:0.11957895 37:0.53740351 38:0.15887719 39:0.48954386 40:-0.16870175 41:0.16940351 42:0.15873684 43:0.50161404 44:-0.51115789 45:0.49824561 46:-0.15340351 47:-0.16898246 48:-0.1525614 49:-0.152 50:-0.1605614 51:0.16308772 52:0.18905263 53:0.1677193 54:-0.16814035 55:-0.14512281 56:0.49810526 57:-0.16477193 58:-0.17122807 59:-0.17838596 
1 1:-0.49361404 2:0.17094737 3:-0.51635088 4:-0.50259649 5:-0.17108772 6:-0.51326316 7:-0.49670175 8:-0.17192982 9:-0.18470175 10:-0.50863158 11:0.47017544 12:-0.19312281 13:-0.1925614 14:-0.51298246 15:-0.20266667 16:0.12884211 17:0.45473684 18:-0.21431579 19:-0.55607018 20:0.12505263 21:0.45235088 22:0.45992982 23:0.11719298 24:-0.55550877 25:0.11859649 26:0.1045614 27:-0.4885614 28:-0.52112281 29:0.0077192982 30:0.57726316 31:-0.094736842 32:-0.29838596 33:0.23101754 34:-0.42175439 35:0.51550877 36:0.45291228 37:-0.12926316 38:0.49221053 39:-0.17712281 40:0.49796491 41:0.50273684 42:0.15873684 43:0.50161404 44:-0.17782456 45:-0.50175439 46:-0.48673684 47:-0.16898246 48:-0.48589474 49:0.51466667 50:0.50610526 51:-0.17024561 52:-0.1442807 53:-0.16561404 54:-0.16814035 55:-0.47845614 56:-0.50189474 57:0.1685614 58:-0.5045614 59:0.15494737 
1 1:-0.1602807 2:-0.16238596 3:-0.18301754 4:-0.16926316 5:-0.50442105 6:-0.51326316 7:-0.49670175 8:-0.50526316 9:0.14863158 10:-0.50863158 11:0.47017544 12:-0.52645614 13:-0.52589474 14:-0.17964912 15:-0.536 16:0.12884211 17:0.12140351 18:-0.54764912 19:0.44392982 20:0.45838596 21:0.45235088 22:-0.54007018 23:0.45052632 24:0.44449123 25:-0.54807018 26:-0.22877193 27:0.5114386 28:-0.52112281 29:0.0077192982 30:-0.089403509 31:0.57192982 32:-0.29838596 33:-0.43564912 34:-0.088421053 35:0.51550877 36:0.11957895 37:-0.12926316 38:-0.50778947 39:-0.17712281 40:0.16463158 41:-0.49726316 42:0.49207018 43:0.1682807 44:0.48884211 45:-0.16842105 46:0.51326316 47:-0.50231579 48:-0.1525614 49:-0.152 50:-0.49389474 51:-0.50357895 52:0.18905263 53:-0.49894737 54:-0.50147368 55:-0.47845614 56:0.49810526 57:-0.16477193 58:0.16210526 59:-0.5117193 
1 1:-0.49361404 2:0.5042807 3:0.48364912 4:0.16407018 5:0.49557895 6:-0.51326316 7:0.16996491 8:0.49473684 9:0.48196491 10:-0.50863158 11:-0.19649123 12:0.47354386 13:-0.52589474 14:-0.51298246 15:-0.536 16:0.12884211 17:-0.54526316 18:0.45235088 19:-0.55607018 20:-0.54161404 21:0.45235088 22:0.45992982 23:0.45052632 24:0.11115789 25:0.45192982 26:0.43789474 27:-0.15522807 28:0.47887719 29:0.0077192982 30:0.24392982 31:0.57192982 32:-0.6317193 33:-0.10231579 34:-0.42175439 35:0.51550877 36:-0.54708772 37:-0.46259649 38:0.15887719 39:0.15621053 40:-0.50203509 41:-0.49726316 42:-0.50792982 43:0.50161404 44:0.48884211 45:-0.50175439 46:-0.48673684 47:-0.16898246 48:-0.48589474 49:-0.48533333 50:-0.49389474 51:-0.50357895 52:0.18905263 53:0.1677193 54:-0.50147368 55:-0.47845614 56:-0.50189474 57:-0.49810526 58:0.16210526 59:-0.5117193 
1 1:-0.1602807 2:-0.4957193 3:0.15031579 4:-0.16926316 5:-0.50442105 6:0.48673684 7:-0.16336842 8:-0.50526316 9:-0.18470175 10:-0.17529825 11:0.47017544 12:-0.19312281 13:-0.52589474 14:0.15368421 15:-0.536 16:-0.20449123 17:0.45473684 18:0.11901754 19:-0.55607018 20:0.12505263 21:-0.21431579 22:-0.20673684 23:-0.54947368 24:-0.22217544 25:-0.21473684 26:-0.56210526 27:0.5114386 28:-0.52112281 29:-0.32561404 30:-0.089403509 31:-0.42807018 32:0.3682807 33:0.23101754 34:-0.42175439 35:-0.48449123 36:0.45291228 37:-0.12926316 38:0.15887719 39:0.15621053 40:0.16463158 41:0.50273684 42:0.15873684 43:-0.49838596 44:0.48884211 45:0.49824561 46:-0.48673684 47:-0.50231579 48:-0.48589474 49:-0.152 50:0.17277193 51:-0.50357895 52:-0.1442807 53:0.1677193 54:0.16519298 55:-0.14512281 56:-0.1685614 57:0.50189474 58:-0.17122807 59:0.4882807 
1 1:0.17305263 2:-0.16238596 3:-0.18301754 4:0.16407018 5:-0.17108772 6:-0.51326316 7:-0.16336842 8:0.16140351 9:-0.18470175 10:-0.17529825 11:-0.19649123 12:0.14021053 13:-0.1925614 14:-0.17964912 15:-0.20266667 16:0.12884211 17:-0.54526316 18:-0.21431579 19:-0.55607018 20:0.12505263 21:-0.21431579 22:-0.20673684 23:-0.54947368 24:0.11115789 25:0.11859649 26:-0.22877193 27:-0.4885614 28:0.14554386 29:0.0077192982 30:-0.089403509 31:-0.42807018 32:0.034947368 33:0.56435088 34:0.24491228 35:-0.15115789 36:0.11957895 37:-0.12926316 38:0.15887719 39:0.15621053 40:-0.16870175 41:0.16940351 42:-0.17459649 43:0.50161404 44:0.15550877 45:0.16491228 46:-0.48673684 47:0.16435088 48:0.18077193 49:0.51466667 50:-0.1605614 51:0.49642105 52:0.18905263 53:-0.16561404 54:-0.16814035 55:0.18821053 56:0.16477193 57:-0.16477193 58:-0.17122807 59:-0.17838596 
1 1:-0.1602807 2:0.5042807 3:0.48364912 4:0.16407018 5:0.49557895 6:-0.17992982 7:-0.49670175 8:-0.50526316 9:-0.18470175 10:-0.17529825 11:-0.19649123 12:0.47354386 13:-0.52589474 14:-0.17964912 15:-0.20266667 16:-0.20449123 17:0.12140351 18:-0.54764912 19:-0.22273684 20:-0.2082807 21:-0.21431579 22:-0.20673684 23:0.11719298 24:-0.55550877 25:-0.21473684 26:0.1045614 27:-0.4885614 28:0.14554386 29:-0.32561404 30:-0.089403509 31:0.23859649 32:0.3682807 33:0.23101754 34:0.24491228 35:0.51550877 36:-0.54708772 37:-0.46259649 38:-0.17445614 39:0.15621053 40:0.16463158 41:-0.49726316 42:0.15873684 43:0.50161404 44:-0.17782456 45:0.16491228 46:0.17992982 47:0.49768421 48:-0.1525614 49:0.18133333 50:0.50610526 51:-0.17024561 52:-0.1442807 53:0.50105263 54:-0.16814035 55:-0.47845614 56:0.16477193 57:0.1685614 58:0.16210526 59:0.4882807 
1 1:0.50638596 2:0.17094737 3:-0.51635088 4:-0.50259649 5:0.16224561 6:0.15340351 7:-0.49670175 8:0.49473684 9:0.48196491 10:-0.50863158 11:-0.52982456 12:0.47354386 13:-0.1925614 14:0.48701754 15:0.13066667 16:0.46217544 17:0.12140351 18:0.45235088 19:0.44392982 20:0.12505263 21:0.11901754 22:0.45992982 23:0.45052632 24:0.11115789 25:0.11859649 26:0.43789474 27:-0.15522807 28:0.14554386 29:-0.32561404 30:-0.089403509 31:0.23859649 32:-0.29838596 33:0.56435088 34:0.57824561 35:0.51550877 36:-0.21375439 37:0.53740351 38:-0.17445614 39:-0.51045614 40:-0.16870175 41:-0.16392982 42:0.15873684 43:-0.49838596 44:0.48884211 45:-0.50175439 46:0.51326316 47:0.16435088 48:0.18077193 49:0.51466667 50:-0.1605614 51:0.49642105 52:0.18905263 53:-0.16561404 54:-0.16814035 55:-0.14512281 56:-0.1685614 57:0.50189474 58:-0.17122807 59:-0.5117193 
1 1:0.50638596 2:0.17094737 3:-0.51635088 4:-0.50259649 5:0.16224561 6:0.48673684 7:-0.49670175 8:-0.50526316 9:0.48196491 10:0.49136842 11:0.47017544 12:0.14021053 13:-0.52589474 14:-0.51298246 15:-0.20266667 16:-0.53782456 17:0.12140351 18:-0.54764912 19:-0.55607018 20:0.45838596 21:0.45235088 22:0.45992982 23:0.45052632 24:-0.22217544 25:-0.21473684 26:-0.56210526 27:-0.15522807 28:0.47887719 29:0.0077192982 30:-0.089403509 31:-0.094736842 32:-0.6317193 33:-0.43564912 34:0.24491228 35:0.18217544 36:0.11957895 37:-0.46259649 38:-0.50778947 39:-0.51045614 40:0.16463158 41:0.16940351 42:0.15873684 43:-0.16505263 44:0.48884211 45:0.16491228 46:-0.48673684 47:-0.50231579 48:0.51410526 49:0.18133333 50:-0.49389474 51:-0.50357895 52:-0.1442807 53:0.50105263 54:0.16519298 55:0.52154386 56:-0.50189474 57:0.1685614 58:-0.5045614 59:0.15494737 
1 1:-0.1602807 2:-0.16238596 3:-0.18301754 4:0.16407018 5:0.16224561 6:-0.17992982 7:-0.16336842 8:-0.17192982 9:-0.18470175 10:-0.17529825 11:-0.52982456 12:0.14021053 13:-0.1925614 14:-0.17964912 15:0.13066667 16:-0.20449123 17:-0.21192982 18:0.11901754 19:0.44392982 20:0.12505263 21:0.11901754 22:0.12659649 23:0.11719298 24:-0.22217544 25:0.11859649 26:-0.22877193 27:0.17810526 28:-0.18778947 29:0.0077192982 30:0.24392982 31:0.57192982 32:0.034947368 33:0.23101754 34:-0.42175439 35:-0.15115789 36:0.11957895 37:-0.12926316 38:-0.17445614 39:0.15621053 40:0.49796491 41:0.16940351 42:-0.17459649 43:-0.16505263 44:-0.17782456 45:-0.16842105 46:-0.48673684 47:0.49768421 48:0.18077193 49:0.18133333 50:0.17277193 51:-0.17024561 52:-0.1442807 53:0.1677193 54:0.16519298 55:-0.14512281 56:-0.1685614 57:-0.16477193 58:0.16210526 59:0.15494737 
1 1:0.17305263 2:0.5042807 3:0.48364912 4:0.16407018 5:-0.17108772 6:-0.51326316 7:0.50329825 8:0.49473684 9:0.48196491 10:-0.17529825 11:0.47017544 12:-0.52645614 13:0.14077193 14:0.15368421 15:-0.536 16:0.46217544 17:0.45473684 18:0.11901754 19:0.11059649 20:0.45838596 21:0.45235088 22:0.12659649 23:-0.54947368 24:-0.55550877 25:-0.54807018 26:0.43789474 27:-0.4885614 28:-0.52112281 29:-0.32561404 30:-0.089403509 31:-0.42807018 32:-0.6317193 33:-0.43564912 34:0.57824561 35:0.51550877 36:0.45291228 37:-0.12926316 38:-0.17445614 39:0.48954386 40:-0.50203509 41:0.16940351 42:0.15873684 43:-0.49838596 44:-0.51115789 45:-0.50175439 46:-0.48673684 47:-0.50231579 48:-0.48589474 49:-0.48533333 50:-0.49389474 51:-0.50357895 52:-0.47761404 53:-0.49894737 54:-0.16814035 55:-0.47845614 56:-0.50189474 57:-0.49810526 58:-0.17122807 59:-0.5117193 
1 1:-0.1602807 2:0.17094737 3:0.15031579 4:-0.16926316 5:0.49557895 6:-0.17992982 7:-0.16336842 8:0.49473684 9:0.48196491 10:0.49136842 11:0.47017544 12:0.47354386 13:0.47410526 14:0.48701754 15:-0.20266667 16:0.12884211 17:0.45473684 18:0.45235088 19:0.11059649 20:-0.54161404 21:0.11901754 22:0.12659649 23:-0.54947368 24:0.11115789 25:0.11859649 26:0.1045614 27:0.5114386 28:-0.18778947 29:-0.32561404 30:-0.089403509 31:-0.094736842 32:0.3682807 33:-0.10231579 34:0.24491228 35:-0.15115789 36:0.45291228 37:0.20407018 38:0.15887719 39:0.48954386 40:-0.16870175 41:-0.16392982 42:-0.17459649 43:-0.16505263 44:-0.51115789 45:0.16491228 46:-0.48673684 47:-0.50231579 48:-0.1525614 49:0.18133333 50:-0.49389474 51:-0.50357895 52:-0.47761404 53:-0.49894737 54:-0.16814035 55:-0.14512281 56:0.16477193 57:0.50189474 58:0.16210526 59:0.15494737 
1 1:0.17305263 2:0.5042807 3:0.15031579 4:-0.16926316 5:-0.17108772 6:-0.17992982 7:0.16996491 8:-0.50526316 9:-0.18470175 10:0.15803509 11:-0.52982456 12:-0.19312281 13:0.47410526 14:0.15368421 15:-0.536 16:0.46217544 17:0.45473684 18:-0.21431579 19:0.11059649 20:0.45838596 21:-0.21431579 22:0.45992982 23:0.11719298 24:-0.55550877 25:0.11859649 26:0.1045614 27:0.17810526 28:-0.18778947 29:0.34105263 30:0.57726316 31:0.23859649 32:0.3682807 33:-0.10231579 34:0.24491228 35:0.18217544 36:0.11957895 37:-0.46259649 38:-0.17445614 39:-0.17712281 40:0.16463158 41:0.50273684 42:-0.17459649 43:0.1682807 44:0.15550877 45:0.16491228 46:-0.15340351 47:0.16435088 48:0.18077193 49:-0.48533333 50:-0.1605614 51:-0.17024561 52:0.52238596 53:0.1677193 54:0.16519298 55:-0.47845614 56:0.16477193 57:0.50189474 58:0.4954386 59:-0.5117193 
1 1:-0.49361404 2:-0.16238596 3:-0.18301754 4:-0.50259649 5:-0.50442105 6:-0.17992982 7:0.50329825 8:0.16140351 9:-0.18470175 10:-0.17529825 11:-0.19649123 12:-0.52645614 13:-0.1925614 14:-0.17964912 15:0.13066667 16:-0.20449123 17:0.45473684 18:-0.21431579 19:-0.22273684 20:-0.54161404 21:-0.21431579 22:-0.20673684 23:-0.21614035 24:0.44449123 25:-0.21473684 26:-0.56210526 27:0.17810526 28:0.14554386 29:-0.32561404 30:0.24392982 31:-0.42807018 32:0.034947368 33:0.23101754 34:0.57824561 35:0.51550877 36:-0.21375439 37:-0.12926316 38:0.15887719 39:0.15621053 40:0.49796491 41:0.50273684 42:0.15873684 43:0.50161404 44:-0.17782456 45:-0.16842105 46:-0.15340351 47:-0.50231579 48:-0.48589474 49:0.18133333 50:0.50610526 51:0.16308772 52:0.52238596 53:0.1677193 54:0.16519298 55:0.52154386 56:0.49810526 57:0.50189474 58:-0.17122807 59:0.4882807 
1 1:0.17305263 2:-0.4957193 3:0.15031579 4:-0.50259649 5:-0.17108772 6:-0.17992982 7:0.16996491 8:-0.50526316 9:0.48196491 10:0.49136842 11:0.13684211 12:0.14021053 13:-0.52589474 14:0.48701754 15:0.13066667 16:-0.53782456 17:0.12140351 18:-0.54764912 19:-0.55607018 20:-0.54161404 21:0.45235088 22:0.12659649 23:0.11719298 24:0.44449123 25:0.45192982 26:0.43789474 27:-0.15522807 28:-0.18778947 29:0.34105263 30:0.57726316 31:-0.094736842 32:0.3682807 33:-0.10231579 34:0.24491228 35:0.51550877 36:0.45291228 37:0.53740351 38:-0.17445614 39:0.48954386 40:-0.16870175 41:-0.49726316 42:-0.17459649 43:0.50161404 44:0.48884211 45:0.49824561 46:-0.48673684 47:0.49768421 48:0.18077193 49:-0.48533333 50:-0.1605614 51:0.49642105 52:0.18905263 53:-0.49894737 54:-0.16814035 55:-0.47845614 56:-0.1685614 57:0.1685614 58:-0.5045614 59:0.4882807 
1 1:-0.49361404 2:-0.4957193 3:-0.18301754 4:-0.50259649 5:0.16224561 6:0.48673684 7:0.50329825 8:-0.50526316 9:0.48196491 10:-0.50863158 11:0.47017544 12:0.47354386 13:0.47410526 14:-0.17964912 15:0.464 16:0.12884211 17:0.12140351 18:0.45235088 19:0.44392982 20:0.45838596 21:0.45235088 22:-0.20673684 23:0.45052632 24:0.44449123 25:0.45192982 26:0.43789474 27:0.5114386 28:0.14554386 29:-0.32561404 30:-0.089403509 31:0.23859649 32:0.034947368 33:0.56435088 34:-0.42175439 35:0.18217544 36:0.11957895 37:-0.46259649 38:0.49221053 39:-0.17712281 40:-0.50203509 41:-0.16392982 42:-0.50792982 43:-0.49838596 44:0.48884211 45:-0.50175439 46:-0.48673684 47:-0.16898246 48:-0.48589474 49:-0.152 50:-0.49389474 51:-0.50357895 52:-0.47761404 53:-0.16561404 54:-0.50147368 55:-0.47845614 56:-0.50189474 57:-0.49810526 58:0.4954386 59:-0.17838596 
1 1:-0.49361404 2:-0.16238596 3:-0.18301754 4:-0.16926316 5:-0.17108772 6:0.48673684 7:-0.16336842 8:0.16140351 9:0.48196491 10:0.15803509 11:0.13684211 12:0.47354386 13:-0.1925614 14:-0.17964912 15:0.13066667 16:-0.53782456 17:-0.54526316 18:0.45235088 19:0.11059649 20:-0.2082807 21:0.45235088 22:-0.20673684 23:-0.21614035 24:0.44449123 25:0.45192982 26:0.43789474 27:0.5114386 28:0.14554386 29:0.34105263 30:-0.42273684 31:-0.094736842 32:-0.29838596 33:0.23101754 34:0.57824561 35:0.18217544 36:0.45291228 37:-0.12926316 38:-0.50778947 39:0.48954386 40:-0.16870175 41:-0.16392982 42:0.49207018 43:0.50161404 44:0.48884211 45:-0.50175439 46:0.17992982 47:0.16435088 48:0.51410526 49:-0.152 50:-0.1605614 51:-0.17024561 52:0.18905263 53:0.1677193 54:-0.50147368 55:-0.47845614 56:-0.50189474 57:-0.16477193 58:-0.17122807 59:-0.17838596 
1 1:-0.1602807 2:-0.16238596 3:-0.18301754 4:0.16407018 5:-0.17108772 6:-0.17992982 7:-0.16336842 8:-0.17192982 9:0.14863158 10:0.49136842 11:-0.19649123 12:-0.52645614 13:0.14077193 14:0.15368421 15:-0.20266667 16:-0.53782456 17:-0.21192982 18:-0.21431579 19:-0.22273684 20:-0.2082807 21:-0.21431579 22:0.45992982 23:-0.21614035 24:-0.22217544 25:-0.21473684 26:-0.22877193 27:0.17810526 28:0.14554386 29:-0.32561404 30:-0.089403509 31:-0.094736842 32:0.3682807 33:0.56435088 34:0.24491228 35:0.51550877 36:0.11957895 37:-0.46259649 38:0.15887719 39:-0.51045614 40:0.16463158 41:0.16940351 42:0.15873684 43:0.50161404 44:0.15550877 45:0.16491228 46:-0.48673684 47:-0.16898246 48:0.51410526 49:-0.152 50:-0.1605614 51:-0.50357895 52:0.52238596 53:-0.16561404 54:-0.50147368 55:0.52154386 56:0.49810526 57:-0.16477193 58:-0.17122807 59:0.15494737 
